926 64
8 0.06282417 0.41436794 0.19902635 0.16560704 0.04595512 -0.114896245 -0.044238824 0.1140758 0.20694715 -0.049966395 -0.13566409 0.022098025 0.01640137 -0.05796812 -0.2585354 0.16231814 -0.13153505 0.21493934 -0.024142599 -0.12888837 -0.14170755 -0.0868029 0.1801767 0.016254248 0.14984228 -0.2253356 -0.18495092 0.04441104 -0.13494493 -0.2627146 -0.22080274 -0.02228222 -0.0071115885 -0.051579442 0.3644033 0.16167536 -0.10150054 -0.0027346453 -0.15796797 0.04324542 -0.05566467 0.16930856 0.010841994 -0.064584576 0.058172636 -0.0992935 -0.23458426 -0.05124476 0.1876679 -0.045515113 -0.13550167 0.04939145 -0.04952523 -0.10646323 -0.04097896 0.13081928 -0.022083081 -0.11965189 -0.06688992 0.12493744 -0.008218158 0.030964484 -0.12350372 -0.11970486
711 -0.18285693 0.35101807 0.4563214 0.299632 0.15408982 -0.1564228 -0.0143284835 0.051086325 0.20143282 0.12080556 0.15162306 -0.07322018 0.08212927 0.022329045 -0.043344084 0.004227226 -0.18667799 0.17358537 0.1856712 -0.046539817 -0.20775932 -0.22182421 0.14856489 0.14233012 -0.0024122787 -0.09746488 -0.009628492 0.07020229 -0.19616291 -0.25705937 -0.11075579 0.16850118 0.043358874 0.022588996 0.13457735 0.07618979 -0.12979606 -0.016119434 -0.020243486 0.116864234 -0.071672976 0.06297015 0.08226155 -0.12938991 -0.0032337091 -0.24858558 -0.29685092 0.105457775 0.26665506 -0.14239503 0.016898165 -0.1084879 -0.037583794 0.033145774 -0.07330247 0.08119471 0.053699017 0.06797364 -0.053011138 -0.080429696 -0.060787264 -0.21000066 0.09354758 -0.13983536
621 0.037275683 0.33624798 0.26884642 0.24639614 0.20568606 -0.22552986 -0.091359355 0.14724348 0.14952783 -0.09847978 -0.021780098 0.067525275 0.06038442 0.027803803 -0.15309374 0.30668852 -0.061852198 0.200091 -0.13365722 0.13354544 -0.111019686 -0.053752925 0.17207925 -0.018338704 0.20572437 -0.10604695 -0.08885114 0.15407792 -0.11873404 -0.048460387 0.0024864927 -0.001180093 -0.003011969 -0.05984367 0.24892324 0.14568105 -0.23994337 -0.025926292 -0.0879818 0.058229208 0.16800508 -0.15854797 -0.09953742 -0.07942733 0.017066427 -0.10251179 -0.26170307 -0.051319458 0.3014674 0.073129125 -0.099353686 -0.181285 -0.117568254 -0.29553947 0.09094779 0.1612104 0.015729172 -0.067778684 -0.09381899 -0.0368371 -0.027358245 -0.089261405 0.099491954 -0.11014449
104 -0.1947996 0.31031397 0.40007052 0.10560054 0.09093748 -0.09929789 0.024255566 0.24045087 0.25286886 -0.15175472 -0.014926744 0.019102346 -0.003678951 0.13353741 -0.01587994 0.3365042 -0.024324669 0.052771363 -0.1442645 -0.025093134 -0.12687817 -0.114196904 0.14945579 -0.16015922 0.05429855 -0.107462265 -0.09123093 -0.19611803 -0.19876693 -0.31650272 -0.16182292 0.19113028 -0.21382542 -0.11117127 0.1279355 -0.12588562 -0.1958386 -0.12763801 -0.06470142 -0.04122552 -0.029989392 -0.1561001 0.20601572 -0.19668883 -0.0688174 -0.17812133 -0.31249198 0.11447765 0.33152613 0.0030127147 0.12953676 -0.04180153 0.12906894 -0.12872005 -0.114211895 0.09874931 0.18410528 -0.014534786 -0.13257466 -0.0070292423 0.099403925 -0.099253826 0.084552966 -0.009827941
312 0.08123534 0.24840766 0.21995367 0.31617016 0.11109724 -0.06884172 -0.056261837 0.051761203 0.2688908 -0.12201276 -0.15769073 0.0048120236 -0.042009965 -0.10163352 -0.19250341 0.06322571 -0.16430914 0.2604809 0.09468514 -0.03989866 -0.055747982 -0.07611763 0.09221883 0.101758406 0.22667646 -0.2240663 -0.14526437 0.085319236 -0.16191688 -0.27149302 -0.095299795 0.016078131 -0.2392789 -0.015426647 0.21802464 0.17698953 -0.07993488 -0.028031627 -0.16687119 -0.038583033 -0.010925181 -0.10096176 0.29597133 -0.15681466 -0.031028593 -0.10081154 -0.33034626 -0.0049264557 0.079150565 -0.022581534 -0.0970221 -0.09941792 -0.1624903 0.04944253 -0.046884514 0.09473981 -0.03782944 0.035197195 -0.096004345 -0.036925636 0.26457155 -0.12592846 -0.044993993 0.03127336
121 0.2765899 0.40984365 0.14910908 0.15633306 0.1968401 -0.18220277 0.014821591 -0.021155696 0.12561628 -0.32428125 -0.29667988 -0.07124998 0.0945635 -0.12872858 -0.06972963 0.03326991 -0.10438428 0.12178275 -0.061969746 -0.06432314 0.13847764 -0.13718331 0.21362269 -0.14060496 0.3510639 -0.10210963 -0.3002849 -0.0008589682 0.122118205 -0.051676627 0.01993213 0.20891918 -0.1318367 -0.042246312 0.16679177 0.018094795 -0.28327227 0.05836048 -0.20410354 0.1870977 -0.22185718 -0.15218344 0.091419235 -0.1914836 0.030762825 -0.08482989 -0.22622824 0.17742814 0.18960723 0.096587375 -0.07530658 -0.23695485 -0.07055683 -0.18803985 -0.36118367 -0.091719836 0.15810564 0.060245056 -0.14734949 -0.19634117 0.19379985 -0.0011986127 0.025226148 -0.13202943
743 -0.0618417 0.034644477 0.28476176 0.22885875 0.032446474 0.1247767 0.031217037 0.022995563 0.1743656 -0.18183792 -0.1684012 0.03486294 0.065332316 0.011151871 -0.23461418 0.14225627 -0.0999671 0.31657264 0.09095963 0.0088933315 -0.107694305 -0.13375802 0.12800653 -0.07284228 -0.07656133 0.1024525 -0.026707333 0.15635562 -0.16073923 -0.34670863 -0.27216747 0.24934818 -0.055251848 -0.018157903 -0.0050210347 -0.0014260478 -0.13271661 0.028967826 -0.32991168 0.20534232 0.11418775 0.29371107 0.07529968 -0.005433044 0.07330191 0.013789581 -0.42378914 0.31742916 0.1074961 -0.032586753 -0.016766362 -0.1440853 -0.15671712 0.07972035 -0.19947746 0.41687205 -0.091796815 -0.23792812 -0.019652348 -0.21482593 -0.27875468 -0.12990773 0.024304276 -0.14715832
710 0.1917432 0.23923375 0.048812352 0.07782617 -0.05281256 -0.04858063 -0.2193887 0.11280704 0.3125113 -0.3563016 0.054225676 0.03182964 0.15616192 -0.0095800245 -0.24302936 0.29999974 -0.10199151 0.11956002 0.09620606 -0.15667112 -0.24126886 -0.16877817 0.103338696 -0.020092078 0.13402182 -0.2176318 -0.12624735 -0.026960569 -0.1325507 -0.03626478 -0.23681112 -0.006244081 -0.0796545 -0.035008278 0.14337458 -0.024876364 -0.06428424 0.10390657 -0.3303947 0.08619485 0.12546255 0.100120746 -0.13368933 -0.21288927 -0.0020870122 -0.08950955 -0.30638283 0.25007248 0.0054552476 0.01000908 0.11523642 -0.012275853 -0.1524334 -0.05956363 -0.1146698 0.3611056 -0.17912413 -0.08132749 0.07269648 0.016248396 -0.022212869 -0.2044119 -0.18666297 -0.16208094
637 -0.23031792 0.06093439 0.011977092 0.1403277 -0.0873739 -0.034959104 -0.11129123 -0.13732323 0.16150834 0.07530488 -0.015254846 -0.14860815 0.22993901 -0.07122223 -0.3295832 0.30004406 -0.29093438 0.3049215 0.085198365 -0.043317143 -0.043259557 -0.31135482 0.07587017 0.116658315 0.18685101 -0.23587899 -0.14001247 -0.212464 -0.38409412 0.010330262 0.010174507 -0.0013801497 -0.11857874 0.045618296 0.11878551 0.051396128 -0.07358681 -0.04134156 -0.14584841 0.24037811 0.04870845 -0.030137323 0.06757775 0.0068328185 -0.022363257 -0.2073494 -0.26784062 0.017726406 0.2721483 -0.08893985 0.26251557 0.0071024685 0.029867815 -0.003574857 -0.22892383 0.20747387 0.09592261 -0.116036534 -0.025917703 -0.30137345 -0.023474049 -0.017443387 -0.015413466 -0.21721095
733 0.22784023 0.38314164 0.07825389 0.103628434 0.149451 -0.18518302 -0.043085434 0.19497204 0.27612355 -0.13819145 -0.014921622 -0.24848647 0.1769949 0.12850524 -0.43085006 0.14234574 -0.03638447 0.200908 -0.057475567 -0.18154539 -0.2536435 -0.13720742 0.20958863 0.0054834876 0.069506556 -0.11887477 0.17846021 -0.023658458 -0.27402264 -0.14802925 -0.07832574 -0.042828783 0.018605435 -0.05969224 0.37021175 -0.16002256 0.3079908 0.3422334 -0.32081813 0.16271599 -0.11004591 -0.19023721 -0.16378649 0.052249875 0.09294528 -0.23308356 -0.1995395 0.07057048 0.35795072 0.18576479 -0.15279222 0.004521896 0.07479535 -0.20620531 0.10465003 0.028155005 -0.027450018 0.23845284 -0.053217143 0.10583662 -0.08909641 -0.07104718 -0.19586076 0.014442049
574 -0.03718069 0.25400883 -0.017935889 0.041393694 0.027350463 -0.27608874 0.048607774 0.073792785 0.056092124 -0.37205052 -0.231911 0.028138382 0.14214234 0.10686565 -0.33334866 0.11891604 -0.15241016 0.3114702 0.08428678 -0.3069757 0.07967247 -0.29955742 0.2347304 -0.05807485 0.11874335 -0.12367203 -0.21518946 0.19322982 0.30059445 -0.1929361 -0.16040078 0.17842144 -0.14077622 -0.10139595 0.083666965 0.030972835 -0.10793433 0.15903358 -0.10220815 0.1390195 -0.007229153 0.03694652 0.14774737 0.103523046 0.17860174 -0.010553426 -0.42199314 0.13336043 0.30738193 -0.030639747 0.29916653 -0.07631266 0.121859446 -0.09282483 0.03529628 -0.027303586 -0.06688793 -0.02633239 0.021255892 -0.049579717 0.23907909 -0.13170375 -0.33573723 0.07667028
14 0.029200299 0.3412818 0.21349126 0.24583195 0.33338204 0.26717368 -0.14715128 0.26605663 0.23936665 -0.21451028 0.18166085 -0.15981418 0.19655815 0.15997735 -0.36193883 -0.058966435 -0.10839704 0.30169117 0.12044771 0.030754127 -0.021510994 -0.2205872 0.1359852 0.1713604 -0.032188874 0.07140344 0.015229744 0.081186615 -0.07974613 -0.2119045 0.09698765 0.13665178 -0.115769684 0.23901142 -0.029389262 -0.049443014 -0.15834853 0.022335943 0.18624456 0.16396411 0.1372493 0.13727795 0.13389021 -0.100407116 0.015470953 -0.3387006 -0.389238 -0.115706846 0.05300066 0.0032639862 -0.2876788 -0.16466048 0.013062464 0.02738585 0.059343737 -0.028004127 0.017478948 -0.022644036 -0.0886986 -0.39732218 0.22209975 -0.12171335 0.10603626 -0.009432191
145 0.02455307 0.13757417 0.25956744 0.08261857 -0.05020235 -0.16141754 -0.38950446 -0.112947844 0.18131232 -0.098785095 -0.027798008 -0.21217063 0.15324725 0.24398622 -0.31934348 0.36413506 -0.0659399 0.038442742 0.26005167 0.1139498 -0.030858526 -0.16353336 0.16757995 -0.07330469 0.21433172 0.029093094 0.12606058 0.0075695133 0.036824074 -0.1906339 -0.09741002 -0.0727983 -0.18332368 0.079250984 0.1570797 -0.118686505 -0.0574107 -0.08218152 -0.04288088 0.09412515 0.12930584 -0.041869115 0.3164433 -0.15221412 0.023987548 -0.16384803 -0.19446686 0.37344003 0.1931518 0.089307435 -0.12232077 0.013874519 0.21360463 0.02069105 0.013543978 0.12485904 -0.08797528 -0.15024212 -0.0909472 0.054089792 -0.071030915 -0.057245724 -0.04544299 -0.402082
797 -0.08841053 0.1409784 0.39607537 -0.049309857 0.2949667 -0.0052551576 -0.09460418 -0.022205165 0.22251448 0.4351775 -0.20429535 -0.03918217 0.23477274 0.15590186 -0.16572398 0.16083312 -0.10552533 0.14702655 -0.06909355 -0.19682238 -0.3857284 0.033578105 0.18614197 -0.06225964 0.026610449 0.16561939 -0.08158366 0.19380426 0.009350461 -0.43855932 0.08818346 0.08592819 0.19486254 -0.057579584 0.26013967 -0.1809873 0.16695654 -0.12962021 -0.31522042 0.27436543 -0.117205195 0.18641838 0.10433 -0.10593766 0.023146207 -0.26444116 -0.35251775 -0.2511458 0.15916604 -0.02289015 -0.23274341 -0.1754078 -0.28134543 0.11101887 -0.04569085 -0.07252645 0.12953287 -0.01291742 -0.07823939 0.057940345 -0.05381105 -0.13613194 -0.0030009628 -0.31710386
124 0.46433562 0.29764092 0.14459144 0.26625913 0.23606977 0.102598764 -0.07280442 0.50878066 0.40949088 -0.089421645 -0.2848542 -0.24644102 -0.087534234 -0.06750571 -0.19828504 0.20828034 -0.03760944 0.22803031 0.0008512935 0.1589163 -0.03888143 0.19029519 0.10720942 -0.13357286 0.20339298 -0.063953385 0.111610726 0.0072323335 -0.098471224 -0.105800495 0.05973911 0.046038434 0.02328029 -0.48762178 -0.06377739 -0.13002121 -0.066568784 0.052469306 -0.17831352 -0.056421597 0.12541799 0.26989067 0.16818827 -0.02550816 0.050575253 -0.02894524 -0.28207296 -0.01775977 0.048994295 -0.09892766 0.044350423 -0.08340147 -0.03532731 -0.21808463 -0.031239763 0.3830256 0.22102775 -0.09747919 -0.18754694 0.035106376 0.085109 -0.16537066 0.116005816 -0.104539216
192 0.32651612 0.18681751 0.4382193 0.25141343 -0.00469079 -0.1135291 -0.13177612 -0.117437206 0.19948772 -0.19988264 -0.085440874 -0.050057806 0.18302818 0.05250012 -0.13061059 0.08248717 -0.11814189 0.13325839 -0.06712134 -0.17296359 -0.015155583 -0.2049065 0.09313131 0.07220694 0.021597086 0.021733617 -0.29068527 -0.08251882 0.0025576104 -0.204698 0.14845388 0.1065924 -0.06234085 -0.091878645 0.053671636 -0.17665116 -0.13356556 -0.15196182 -0.1313192 0.17037396 -0.026341904 -0.15979534 0.14250948 -0.080957405 -0.015550231 -0.036938325 -0.118138395 0.27359346 0.44510043 0.101714015 -0.029132217 -0.35949114 0.07577622 -0.26237196 0.08234327 0.26767907 0.06738563 -0.18760319 0.059648283 0.013743029 0.043074977 -0.19864042 0.088936284 0.018521715
189 0.026835345 0.29983065 0.024942877 0.22396575 -0.07142998 -0.05516181 -0.029707987 0.12701698 0.22299874 -0.21610087 -0.065378405 0.020186536 0.0123543525 0.46560347 -0.19551785 0.37437838 -0.38958713 -0.0705592 -0.12654081 0.056614634 -0.48338738 -0.13607137 0.07335198 0.036218263 0.3243463 0.10134036 0.06838725 0.009648111 -0.05222399 -0.09138025 -0.2162079 -0.15769213 -0.3287836 -0.29356495 0.22910172 -0.22697647 -0.16924782 -0.010835107 -0.034360327 -0.036322057 -0.110934764 -0.15930158 -0.18133557 -0.0014941563 -0.0030952087 -0.2727035 0.12232279 -0.0052851257 -0.073145665 -0.062258665 0.10658754 -0.34404635 -0.25513172 0.16446394 0.00037295246 0.24391066 0.06455229 -0.18503845 0.0992754 0.23608187 0.10642911 -0.6070533 -0.39741024 -0.16597559
728 0.08475776 0.4069593 0.15283291 0.21370175 0.3728876 -0.025415681 -0.10270121 0.016393755 0.03696703 -0.07867169 -0.33238176 -0.25878343 0.181837 -0.05542652 -0.14944299 -0.13147293 -0.37626505 0.14286414 0.14856905 0.051511094 -0.27981424 -0.041453615 0.27732292 -0.010658382 -0.0619303 -0.15326057 0.16393392 -0.014789566 -0.10891296 -0.26394892 -0.033714216 -0.00293276 0.054152362 0.032986764 0.058912136 -0.30094415 -0.05052089 0.07158298 -0.11832731 -0.32647586 -0.36945164 0.013324537 0.10226396 -0.11416206 -0.17521729 0.040421665 -0.13679686 -0.14822318 0.2768813 -0.15386344 0.4044278 -0.24767852 -0.17204595 0.081170574 -0.15214339 0.13785714 0.21876223 -0.012949901 0.21793143 -0.09528218 0.30378833 -0.29589665 0.032374036 -0.20433252
181 0.2956545 0.31420198 0.05404539 0.02186787 0.02111124 -0.009339707 0.017849114 0.22508216 0.09551691 -0.27472988 -0.2392005 -0.07495187 0.20843935 0.35858172 -0.36310315 -0.0802341 -0.21447997 0.36276594 0.40464965 -0.11659442 -0.2009253 0.033164646 0.5018043 0.016158633 0.00016785874 0.16494589 0.0031033228 0.023335613 -0.18311173 -0.40725896 0.001015151 -0.1708417 0.04337127 -0.035741787 0.12768862 -0.12779306 -0.020476367 -0.10897638 -0.13834175 0.27227947 -0.24940814 -0.025181474 0.21491835 -0.14091799 -0.16856404 0.12621182 -0.21995819 -0.031641338 0.1250311 0.027381651 0.02389326 -0.3736112 -0.044612963 0.1526429 -0.07239424 -0.11563248 0.02164631 0.00510654 -0.08743558 -0.0056330888 -0.111672126 0.027497295 -0.054856032 -0.015792793
352 -0.047483217 0.34918085 0.10497308 0.3296327 0.13117523 -0.052440688 0.0744698 -0.019533793 0.23279518 0.16376072 -0.120047145 -0.0838402 0.17543624 -0.071235605 -0.0042104973 0.11777794 -0.28654215 0.06095589 0.16834868 0.030584378 0.009226802 -0.19197252 0.27247253 -0.010225582 0.029635003 0.10868233 -0.36817747 0.09831837 0.021119222 -0.12302102 0.03512371 0.14689192 -0.038976483 0.11547599 0.18657246 -0.022507219 0.011809154 0.011444819 -0.016609468 0.055820517 -0.24682134 -0.12694967 0.16281487 0.18600082 -0.19434276 -0.31926325 -0.39642772 0.13435252 0.11114547 0.16141054 -0.13632129 -0.33778566 0.125587 0.17800322 0.055362143 0.012380923 -0.105236694 0.04410915 0.2459849 -0.026372094 0.005301731 -0.083331615 -0.12837608 -0.21389538
905 0.1870155 0.16186923 0.25820643 -0.06132929 0.2094101 -0.0049864096 0.10446238 -0.13700421 0.2512017 0.07008176 -0.1640912 -0.1214721 0.16118114 -0.2636388 0.2994618 0.17783101 -0.17252086 0.37510166 -0.017399494 -0.0141911805 -0.077291265 -0.11598447 0.27739537 -0.0020248855 -0.11874794 -0.15735427 -0.023062026 -0.013151051 -0.0005848232 -0.08675529 -0.07410584 0.2740116 0.0030364944 0.073392294 0.020723086 0.33352432 -0.15321639 -0.24511966 -0.3130976 0.12612183 -0.16108099 -0.015979815 0.22574498 0.06011585 -0.015132654 -0.26150045 -0.48959422 0.115757585 0.14712907 -0.14152063 -0.24674197 -0.20295054 -0.090010375 0.058319405 -0.2274469 0.21333763 -0.1689014 0.16962619 -0.007975249 -0.3151828 0.015029866 -0.19509663 0.17731568 -0.050791655
265 -0.05152342 0.4747031 -0.03934595 0.14112665 0.04033724 -0.06969868 -0.09891693 -0.15705144 0.0010861562 -0.012217354 -0.14726977 0.060548928 0.3638155 -0.09873157 -0.21877854 0.0687586 -0.2121959 0.11472754 0.04991527 -0.0050711078 0.026462402 -0.1568912 0.082758576 -0.045337595 0.13053864 -0.11424182 -0.1268075 -0.08300692 -0.2225459 -0.08925828 -0.03842155 0.13905735 0.12866874 -0.08351117 0.12437775 0.2152919 -0.26631206 -0.15694772 -0.0047176327 0.024105852 -0.032634366 -0.05896951 0.33928102 -0.19143946 -0.15494159 -0.24431683 -0.46719262 0.37834832 0.100195095 -0.06628934 0.0066274866 -0.27709278 0.06199543 -0.0025563268 -0.0851696 -0.09203016 -0.11533051 0.020602282 -0.2433924 -0.30693156 -0.04121252 0.022584688 -0.0940901 -0.021148985
855 -0.22155127 0.23936766 0.15778193 -0.01654928 0.20086709 -0.13414928 0.061713632 0.049739424 0.18127707 -0.09873104 -0.47707254 -0.027157249 -0.08739397 0.20026578 -0.2250396 0.22829436 0.20555687 0.13367003 -0.12802193 -0.13000536 -0.37276804 -0.51967293 0.043193888 0.1483724 0.17217797 -0.24527931 0.09960149 -0.11424206 -0.15569259 -0.12718955 -0.25209433 0.026950872 -0.060413994 -0.22246848 -0.030227173 0.061688572 -0.0286122 -0.04999176 -0.12210873 0.07006596 -0.034055848 0.07944137 -0.21534097 -0.04224988 -0.15055369 -0.005343772 -0.088269964 0.12115244 0.19397755 0.12669885 0.061762154 -0.20138523 0.25129515 -0.21043397 -0.0566503 0.36135262 0.19837643 0.032663148 -0.04343371 0.17382336 0.00510715 -0.23557423 -0.08916397 0.046657335
839 0.24844457 0.040116623 0.12756462 0.094832964 -0.02356255 -0.15163293 -0.13842799 0.26949847 0.1331633 -0.14542358 0.12784554 -0.17912364 0.22542405 0.19247246 -0.13975514 0.110479414 0.08360174 0.4672435 -0.19141747 0.19072634 -0.22473742 0.19368531 0.20588899 -0.03345264 0.16907392 -0.13087292 -0.109689996 0.09433302 -0.12830967 -0.39446867 -0.20391534 0.3140039 -0.26565003 -0.2609274 0.12759072 -0.12143188 -0.3451065 0.048032157 0.028455336 0.1765463 -0.113160655 -0.2634226 -0.25640818 -0.116663925 0.010502635 -0.0065132203 -0.11459684 -0.013700688 0.07218334 0.5171847 0.13760471 -0.2776425 0.2240291 -0.12390108 0.13524643 0.24816303 -0.0580913 0.033225738 0.17455567 0.00097636756 -0.020216044 0.033274814 -0.40551123 -0.16575746
260 0.23022924 0.44457528 0.01019343 0.32877383 0.0054186387 -0.01757377 -0.18049899 -0.21136042 0.17307003 -0.123203 -0.30694044 0.004168146 0.1262039 0.382309 -0.086122714 0.2778417 -0.20209493 0.33227432 -0.08274453 -0.030816428 -0.4017231 -0.16338544 0.25334707 0.22032844 -0.13845807 -0.37734884 -0.0019920734 -0.08343062 -0.26920977 -0.19437744 -0.10432426 -0.051642034 -0.014357128 0.23501644 -0.18440261 -0.12151716 0.38009608 -0.32445005 -0.0961897 -0.087068215 -0.28105015 -0.08159323 0.3552251 -0.42180488 0.073076 0.26399982 -0.34892136 0.17469192 0.11353115 -0.14956784 0.0022916666 0.10015298 0.02837744 0.104131944 -0.004913836 -0.009452146 0.010320168 -0.21116969 -0.18701269 -0.15289009 -0.2854718 0.10706141 0.09791171 -0.2781596
724 -0.039893042 0.45669666 -0.23104803 0.08405547 -0.0658927 -0.054228645 0.052953575 0.10451193 0.43573222 -0.36331528 0.0790202 -0.09053695 0.10485894 0.023969311 -0.16209693 -0.0015056875 0.026941225 0.1154549 -0.11357664 -0.031331155 0.035435535 -0.18316676 0.24937925 -0.037705485 0.27874812 0.017667169 -0.29079363 0.022253266 0.21677712 -0.124877326 -0.1960815 0.09259286 -0.1660108 0.040107816 -0.08759457 -0.12844858 -0.15904672 -0.14709865 -0.12865081 0.41036737 -0.06585679 -0.023973051 -0.13814348 0.006225551 0.063745886 -0.14781567 -0.327683 0.25064647 0.17702916 0.0043401844 0.08187135 -0.22826208 0.009254357 -0.27254814 -0.2732152 0.4650331 -0.018520042 0.054069232 0.31353799 -0.10124248 -0.0494817 -0.1389007 0.00042632475 0.014342979
451 -0.21147232 0.3413673 0.21437368 0.14724088 0.05316306 -0.02633835 0.15131432 0.15517941 0.17428648 0.037167888 -0.36018994 0.0589744 -0.01941736 -0.0671812 0.01477972 0.35672843 -0.011374882 0.4509333 0.031101516 -0.18552053 -0.11986807 -0.01993685 0.066115074 -0.124216504 -0.2077898 -0.29970834 -0.04376187 -0.12084791 -0.10279244 -0.33356294 -0.12798417 0.09759674 0.036476757 0.28537622 -0.0067462972 0.0030184754 -0.10257377 -0.19279182 -0.03288128 0.08798566 -0.098022126 -0.008545 -0.12435695 0.020116441 0.29088232 -0.27357495 -0.3488104 -0.13400942 0.13010938 -0.031222744 -0.26805213 0.23705286 -0.2405964 0.18142648 -0.0149353715 0.17324919 0.2260051 0.18262757 0.03864346 -0.17073497 -0.10602415 -0.3069175 0.0045323744 -0.21366933
249 -0.039101534 0.01271367 0.14679103 0.21889818 0.12396259 0.025430284 -0.0366332 0.07432532 0.06534932 -0.051044352 -0.38077632 -0.3389004 0.11369535 -0.06759097 -0.0889686 0.29401392 -0.242516 0.30778286 0.09684169 0.061938178 -0.11715059 -0.03161812 0.23023564 -0.32350037 0.1734209 -0.045408756 -0.2358582 -0.099858865 0.0023830933 0.0020259682 0.2799317 -0.06467319 -0.12975486 0.18930532 -0.031624407 0.11039503 -0.27846307 0.19424577 -0.060706835 0.012015134 0.23354061 0.14496714 -0.19659027 -0.3841746 0.25302783 -0.30460066 -0.5263405 0.029726446 0.28123274 -0.1045142 -0.20848823 -0.013998977 -0.105337694 0.20525485 -0.064129926 0.084738664 0.0925536 0.07258626 0.24491614 0.022392452 0.09402831 -0.00882085 0.04108375 -0.12611043
699 -0.10700849 0.15897864 0.3491053 0.29122832 -0.03460223 -0.4353683 0.03999212 -0.1011699 0.19372025 -0.1757067 -0.32365602 -0.10422762 0.060660858 0.3211202 -0.21527158 0.048796583 -0.059327845 0.17675716 -0.025460953 0.10943389 0.046452507 -0.19132496 0.082939886 -0.24350275 -0.0806514 -0.38105115 -0.1362818 0.15612642 -0.15680057 -0.37158698 -0.076375715 -0.051734727 -0.08868376 0.14074591 -0.11611817 -0.07348022 -0.19896322 -0.14151137 0.19940582 0.18535188 -0.025629908 0.21600588 0.017144976 0.15311095 0.10934905 -0.39536402 0.081078626 -0.2699512 0.47833484 -0.20084436 0.009349203 0.026580613 -0.18376026 -0.03673785 0.04965035 -0.08064056 -0.07502949 0.08902355 0.27908617 0.07291324 -0.05871469 -0.1684784 -0.1741951 -0.10368921
396 0.17349039 0.33915308 0.12838069 -0.04433308 -0.06876003 -0.1552076 -0.12269271 -0.07022775 0.25456098 -0.022669833 -0.06054465 -0.026452415 -0.17174841 0.06879884 -0.059411507 0.04049765 -0.19852109 -0.116993956 -0.036367353 -0.0060226074 -0.23778442 -0.014323138 0.07407845 0.12286522 -0.08496898 -0.23263113 -0.023983805 -0.016423607 0.0015626064 -0.1983787 0.04834338 0.055632483 -0.073697865 -0.0426471 0.31741762 0.36245063 -0.2147697 -0.25385687 0.080455184 0.030091777 -0.04286788 0.25715148 -0.060456805 -0.15824337 0.3371664 -0.5792994 -0.3899018 0.2152711 0.43058008 0.026092803 0.3185832 -0.20322439 -0.078568995 -0.25595063 -0.16790394 -0.013900211 0.078992814 0.054839473 -0.1092626 -0.28448647 -0.34126022 -0.019340789 -0.01286534 -0.0562969
264 0.2160635 0.30752796 0.18823746 -0.060087528 0.12394761 -0.21873195 -0.28099594 -0.12712857 0.0036627273 -0.18484026 -0.22685263 0.067758106 -0.16631927 0.045078635 -0.16072811 0.029839879 -0.30732217 -0.020484895 -0.0037523005 -0.08483257 -0.21982788 -0.465486 0.21679515 -0.2504062 -0.18831287 -0.3876464 -0.020443568 0.021045681 -0.1790624 -0.2854637 0.06807407 0.18685274 0.005283575 -0.20127238 -0.034303736 0.05710638 0.0757654 -0.07910365 -0.15557615 0.25125143 0.093118034 0.031241603 0.29251283 -0.12008819 -0.013949195 -0.2565453 -0.017145932 0.23575883 0.12066163 0.12745014 -0.07831181 -0.1497584 -0.30441758 -0.19775757 -0.060461458 0.03959761 0.12521373 0.038597956 0.04050786 0.027538307 -0.0926385 -0.07944718 0.07468684 -0.03553268
79 0.07905862 0.18209206 0.104422264 0.15420386 0.2268488 -0.0059749936 -0.2325176 -0.07906799 0.22525105 -0.10557789 -0.053068504 0.12414352 0.15375444 -0.10409431 0.2928873 0.20645088 -0.12990722 0.30559337 0.030902972 -0.09900992 0.04622511 -0.3861926 0.15326783 -0.21567135 0.113999784 -0.4021172 -0.42732155 0.13486919 -0.19371697 -0.100316904 0.14686659 -0.047138453 -0.15890653 -0.07886887 0.17634906 0.08600535 -0.14439256 -0.066978045 -0.2001227 0.037731666 -0.073319234 -0.018360797 0.06127789 0.17307961 -0.10373644 -0.20124292 -0.21082523 0.25894445 -0.072953776 0.046870094 -0.08831026 0.08338502 0.017067757 -0.17814566 0.05620094 0.16049027 -0.03792247 0.011862132 -0.13149805 -0.121347345 0.12724447 -0.1865142 0.11864494 -0.25381136
453 0.15765157 0.23017327 0.26018795 0.31033745 0.15442075 -0.119003296 -0.24082278 -0.1107166 0.2816977 -0.019646728 -0.36456195 0.039102443 0.006979876 -0.15441035 0.23511207 0.033687837 -0.078921825 0.23989436 0.030081555 -0.18400906 -0.16118224 -0.3726469 0.24290465 0.07518608 -0.042588465 -0.40327054 -0.05619315 -0.023867391 -0.13702841 0.026621388 0.036792982 -0.23276676 -0.09313608 -0.10145352 0.22229484 0.023825897 -0.18518558 -0.12857841 0.16156374 -0.0548548 0.18303272 -0.009086962 0.2605252 -0.08167594 -0.13867703 -0.106465645 -0.2396063 -0.009598599 0.3013991 -0.18701075 -0.17244561 -0.009235616 0.009408244 0.041371305 -0.022456197 0.21201901 -0.20168437 -0.099167585 -0.07384108 -0.23018897 -0.08376628 -0.027905555 -0.027894692 -0.2083032
434 -0.20294334 0.4035356 0.07992376 -0.09455688 0.021220753 -0.24109568 -0.17511652 0.06510216 0.1296401 -0.06920752 -0.078071624 -0.21532343 0.14299344 -0.05565202 0.15744571 0.21047956 -0.003048818 0.33120883 0.12463617 -0.17274286 -0.28012595 -0.1658985 -0.08756872 -0.31180775 0.3393856 -0.08998178 0.14692676 -0.08763003 -0.2530849 -0.155858 -0.17003323 -0.021460697 -0.12330711 -0.24533166 -0.1423679 -0.13793072 0.078639776 -0.18770856 -0.13749152 0.080254555 -0.01297727 0.11208475 0.106660865 0.0011458861 -0.08397258 -0.40005255 -0.11148552 -0.1319687 0.33824643 0.08777584 0.10330575 -0.13245821 0.111357845 -0.13162608 -0.15448123 -0.010289269 0.16402406 -0.15622422 -0.023962617 0.16168724 0.08595359 -0.11175584 0.006598482 -0.27980542
822 0.17721514 0.16537772 0.18995832 0.4346231 0.046850413 -0.029641557 -0.11597612 0.058636997 0.21661659 -0.10834182 -0.188982 -0.14210616 0.063023515 -0.067597084 -0.31007525 0.038745318 -0.112895556 0.059878908 0.11928872 0.0009079698 -0.17615256 -0.0057252045 -0.007465221 -0.070155084 0.0025861664 -0.20939389 -0.21061653 -0.113205574 -0.2357068 -0.26052818 0.121076144 0.059802637 -0.13675871 -0.06632747 -0.21512482 -0.20580995 -0.32852384 -0.23082171 -0.025152205 0.117547736 0.009115046 0.13314159 0.16133034 -0.04548833 -0.04756374 -0.2363755 -0.220656 0.44131213 0.09517479 0.22187148 0.040955953 -0.047044907 0.010310567 -0.14877373 0.06836374 0.27162594 0.06517625 0.0063943383 -0.30992323 -0.027737683 -0.1589285 0.07887299 0.41410428 -0.40282777
788 -0.20503485 0.32189295 0.13053587 0.437783 0.28026158 -0.21591006 0.14955695 -0.1294936 0.17270653 -0.13969451 -0.101046406 -0.10169453 0.23910625 -0.061260827 -0.0530638 0.30071118 -0.36918196 0.038689006 0.0017344832 -0.15858172 -0.11952944 -0.34326646 0.017932361 -0.09158297 0.49609175 -0.31482464 -0.014672675 0.14017488 -0.2699009 -0.23004216 0.2939771 0.025404012 -0.19056912 0.17641144 -0.259348 -0.13476081 0.12885273 0.16539234 0.19164643 -0.110046335 -0.20058969 -0.04286917 0.13347772 -0.0020059166 -0.11328895 -0.31384265 -0.039068624 -0.32153836 0.15596122 0.013590107 0.043357257 -0.18337391 0.3084292 -0.007398988 -0.20473872 0.031741887 0.3671385 -0.057697993 0.10192258 -0.15502949 0.08631938 -0.16383569 -0.051318165 0.06406762
893 -0.039952803 0.37163293 0.2510896 0.05069666 0.17804967 -0.079484515 -0.10185253 -0.048122324 0.018412296 0.016478648 -0.23119213 -0.24788477 0.107092746 -0.08668702 -0.045389365 0.24963449 0.26709548 0.23842432 -0.22973232 -0.21573462 -0.2689881 -0.12620701 0.07741118 -0.011463378 -0.08043223 -0.31357062 0.18064062 0.046719413 -0.0033328147 -0.15624928 -0.1652675 0.558731 -0.16435324 -0.14029352 0.22480707 0.041257188 -0.121368274 0.25630686 0.042641036 0.1398675 -0.31019157 0.018901508 -0.10529747 0.20007877 -0.117320724 -0.18900809 -0.29205123 0.022052677 -0.07235568 0.17528093 0.14439417 -0.09724924 -0.08537473 -0.13075413 -0.20730008 -0.1095512 -0.026353091 -0.17929077 0.09315787 0.1545453 0.16936955 -0.0498316 -0.2563908 -0.41821933
19 0.07761226 0.023352072 0.24899702 0.16463277 0.444202 0.19840537 0.018633878 0.27617502 -0.08009444 -0.017109247 -0.26032645 -0.15683919 0.064293355 0.17552106 -0.19099627 0.16868645 -0.29883912 0.49444517 0.3070941 -0.2595321 -0.06940387 -0.16016324 0.31641713 0.099250935 0.18992913 -0.07322375 0.1733515 -0.34165198 0.27782735 -0.005348416 0.24268354 0.17743222 0.27475706 -0.0034896978 -0.033518113 -0.0022812383 -0.11055968 -0.056897003 -0.271534 0.0155958375 -0.0078050434 0.059350144 0.24695124 0.1877209 -0.046741325 -0.1442562 -0.5290222 0.17700723 0.024489379 -0.26235756 -0.2751663 0.056249134 0.2554617 -0.13362813 0.24418764 -0.09831078 0.27776882 -0.23053685 -0.08455611 -0.14899425 0.021450592 -0.10784569 -0.011155752 0.05050155
251 0.18160623 0.27411023 0.0040026945 0.15453246 0.3552813 -0.24712583 0.06776089 0.009892621 0.2668103 -0.083577015 -0.00534129 -0.099244155 -0.035768718 0.046955448 -0.3694852 0.37448132 0.122034684 0.15125827 -0.06957387 0.1768977 -0.28153613 0.05603639 0.08859123 0.034823656 0.35934666 -0.3148492 -0.0561386 0.16344918 -0.22709051 -0.4395452 -0.22486982 0.123667635 -0.11882304 -0.4489934 -0.04101813 0.14633675 -0.04837074 0.06936929 -0.1892134 0.24056645 0.09084683 -0.054744177 -0.10668139 0.01000014 -0.10912572 0.18779914 -0.22507524 -0.05828485 0.29672453 0.045697622 -0.084669806 -0.08792793 -0.3502431 -0.06719777 0.26588038 -0.110219926 0.045660127 0.042001516 0.3139371 0.029471776 -0.31174657 -0.078277804 -0.2274098 0.030883292
734 0.014370505 0.10462333 0.12702154 0.2378714 -0.09113804 -0.24773148 -0.4733974 0.11961405 0.22183046 -0.10811365 0.024801074 -0.08135298 0.16748779 0.20387882 -0.31739873 0.1471369 0.018075593 0.23619115 0.3119608 0.021544661 -0.3027461 -0.32492182 -0.040485512 -0.048450373 -0.007898652 -0.09672449 0.08868343 0.12472795 -0.05841871 -0.24550146 0.23696078 -0.040974833 -0.37699685 0.096745215 -0.12493349 0.04184351 -0.48610023 0.1300027 -0.0018950712 0.15026309 -0.09683581 -0.3721212 0.34395084 0.070986986 0.20082195 -0.38804957 -0.10284491 -0.4590445 0.03876958 -0.1446625 0.0065210653 0.04253319 0.07271422 -0.1894467 0.27557382 -0.0068478268 0.09090532 -0.048734024 0.11567739 0.2423185 0.11857555 -0.15121067 -0.253602 -0.4387862
270 0.13846505 0.28250614 -0.089662194 -0.055441204 0.22315347 0.1508331 -0.16667767 0.07397772 0.3319951 -0.047085185 -0.2938179 0.02958658 0.24558292 0.33471164 -0.3162972 0.3632256 0.040095802 -0.042765457 0.53078234 -0.1529742 -0.2820905 -0.021115055 -0.14220506 -0.18494514 0.17969391 -0.27263215 -0.10372742 0.23482455 -0.026648548 -0.0024494394 -0.10437735 0.09241882 -0.104625486 0.07567978 -0.020008925 0.19488287 0.08014886 -0.44716588 -0.29157692 0.22398174 0.19479832 0.027963063 0.09164318 0.066456065 0.0724362 0.10772249 -0.19450149 0.17846109 0.04117333 -0.08242897 -0.17873237 -0.11955833 -0.026388356 -0.3284663 0.08469202 0.15337573 -0.019369481 -0.06891019 -0.011788332 -0.07759654 -0.08021336 -0.28051674 -0.18845898 -0.09176562
244 0.41382074 0.19043317 0.21261615 -0.10011462 0.25803268 -0.01996302 0.014884296 0.020436844 -0.344905 -0.31066027 0.03958002 -0.104269855 0.032394774 -0.08286171 -0.31272575 0.32438183 -0.019574301 0.4614028 -0.117845714 0.057002325 -0.12897468 -0.1842416 -0.17038107 -0.14145032 0.2256486 -0.3619385 -0.045369975 0.13819352 -0.3165362 -0.07744159 -0.12594742 -0.03028696 -0.017594459 -0.53028977 0.12761295 0.09420515 0.03711882 -0.1865803 -0.07226415 -0.04329431 -0.15587494 0.08329021 -0.067704335 0.20635621 -0.103353 -0.20800756 0.05758515 -0.052060917 0.25376728 -0.14803514 -0.19002703 0.1652054 -0.17886376 -0.31271234 -0.2684574 0.50048697 0.03624654 0.06645716 0.050410785 -0.101823956 -0.12201681 -0.25286552 -0.12265497 0.15734372
365 0.28519872 0.33468324 0.10974757 0.28767532 0.052885063 -0.13737813 -0.048396155 0.017899826 0.2531121 -0.073696956 0.006895452 -0.0466734 0.15736711 0.01780809 -0.19665097 0.230289 -0.08144691 0.28905305 0.07615193 0.25258565 0.41516498 -0.26200226 -0.0025362812 0.094832145 0.13433377 -0.3181452 -0.1872027 -0.0428878 -0.16736661 0.0134467 -0.1295252 0.033831805 -0.0045842975 -0.08291417 0.030340655 -0.022508057 -0.5870582 -0.15923475 0.3574042 0.06880192 -0.107312635 0.052578025 -0.017612115 0.13933982 -0.11817444 -0.28472582 -0.23667131 0.01900038 0.12301634 0.01447936 -0.121590026 -0.35819694 0.070424095 -0.17091194 0.14336638 0.009368785 -0.171331 0.04454078 -0.25208044 -0.17985778 -0.2016792 0.049218707 -0.18712452 0.24524586
692 -0.123592846 0.1818163 -0.17978786 0.31389403 0.009294894 -0.113454156 -0.022949303 0.2781764 0.3688575 -0.06937068 0.051640343 -0.36228523 0.3157808 0.09725379 -0.062342957 0.16901629 0.25563043 0.053030685 -0.118983865 0.029108206 -0.28738233 -0.34293884 -0.009470973 -0.30362335 0.06843123 -0.005406641 -0.15774864 0.11954516 0.26512474 -0.5050078 -0.18758877 0.1801176 -0.05190693 -0.36403197 0.14023367 -0.3096536 -0.23819947 -0.45641473 0.03155607 -0.1870045 0.12893337 0.0092026545 0.18350692 -0.24279474 -0.11901513 0.155101 -0.41606918 -0.07591089 0.13013084 0.32746324 -0.14170147 -0.38316673 0.06340772 -0.19865431 0.035564527 -0.051608555 0.085001744 -0.11305625 0.4145542 0.03322668 0.3853277 0.2109374 -0.029087124 -0.18946198
753 0.09875096 0.13268577 0.14496414 0.17452073 0.099964865 -0.096065104 -0.19910721 0.15230562 0.12986848 -0.08286703 -0.29379424 0.06154291 -0.09148586 -0.14395063 0.050646964 0.35284066 0.20226154 0.012832113 0.065503255 -0.15854937 -0.088979796 -0.21507345 -0.10236842 -0.36949053 0.11285438 -0.21622422 -0.09711327 -0.123199075 -0.060278717 -0.13727498 0.058063436 0.08234448 -0.31055272 -0.469262 0.21901873 -0.17197707 -0.011809867 0.12899747 0.013868024 0.20265844 0.0030794241 -0.19571817 0.06582482 -0.014314197 0.019669462 -0.23276095 -0.59185296 0.22947285 0.12743495 0.25561985 -0.4815364 -0.095687926 0.24912165 0.16304246 -0.21393663 0.0486245 0.2355178 -0.2878981 0.09218962 -0.14446491 -0.17647114 -0.114251725 -0.067940675 0.026477568
834 0.12052696 0.08533076 -0.05671859 0.20424576 0.1599807 -0.031892743 -0.1352752 0.16364864 0.06549892 -0.21309029 -0.14934623 0.28013435 0.16396543 0.027964061 0.1275367 0.36136085 -0.10217474 0.12528495 0.28511906 -0.1388537 0.028814895 -0.29914686 -0.047681026 0.008626335 0.02936172 -0.26481465 -0.28831208 0.24288157 -0.35686412 -0.24630563 -0.27598655 0.041040495 -0.10385063 0.04174217 0.07638363 0.097380616 -0.07586731 0.10113674 -0.12990297 0.20000058 -0.14574236 0.16837189 0.11038181 -0.10021706 -0.28177196 -0.29550186 -0.18170619 0.13127215 0.12231285 -0.40804613 -0.13046429 0.024556944 0.25993234 0.11406299 0.21265492 0.13493158 0.4153215 -0.10524793 0.24144666 0.06319714 0.061286405 -0.2841828 0.13284664 -0.06684872
140 0.57695717 0.12529056 0.08663048 0.15117683 0.021860404 -0.1278051 0.03207527 0.04555823 0.2366084 -0.22442779 0.14622325 -0.19030786 0.01894678 -0.07652857 -0.07845517 0.23745711 -0.22152343 0.45388478 0.34032777 -0.10402507 -0.0058560697 0.12215566 0.09514135 -0.2123006 -0.022018969 -0.24072288 -0.15252326 0.24692933 0.28319442 -0.12792489 0.13884531 -0.027699364 0.238343 -0.075943485 0.17960465 0.053279005 -0.15119341 -0.17689545 -0.123100676 0.27581763 0.208995 -0.013912281 -0.021401444 0.03536325 -0.023653893 -0.20288531 -0.26263466 0.28667146 -0.01727641 0.15898 -0.064320795 -0.25338307 0.066025816 -0.1847286 0.14254364 0.21165365 -0.13577388 -0.13945445 -0.059641395 0.039500773 -0.24482013 -0.30954465 0.06398242 -0.44579116
859 0.0050696703 0.12827277 0.17249921 -0.05645042 0.054872192 -0.41016603 0.06758121 -0.3738371 0.15058932 -0.41777402 -0.18652374 -0.00484516 0.06391212 0.07616429 0.10546004 0.053065754 -0.0655608 0.42463532 -0.39030755 -0.067302726 0.016811272 -0.20358595 0.037934177 0.07984298 -0.10578594 -0.37794298 0.13066158 -0.06687249 0.28937462 -0.25390515 -0.038014144 -0.21532069 0.083809026 -0.13111112 0.047611084 0.35455132 -0.28527763 0.13874805 0.015341866 0.123824954 -0.032679528 0.19155534 0.11482384 0.028891278 -0.0885189 -0.08071771 -0.40007007 0.31626332 0.20182775 -0.013781801 0.13592233 -0.39322415 0.019359056 -0.0971289 -0.13455433 0.08945181 0.072254375 -0.26880103 0.137829 -0.0153267495 0.11920238 -0.19314444 0.02451854 -0.21607427
308 0.2828456 0.20889072 -0.07508972 -0.20727421 0.060381558 -0.0690363 -0.25561452 0.19002987 0.09967693 0.15303996 -0.3679844 0.11449281 -0.26274005 0.4832206 -0.04374834 -0.031534795 -0.31031525 0.5019926 -0.10454651 0.26802847 -0.14376578 -0.20603387 0.18283306 0.08208745 0.08592372 -0.34145594 -0.0860275 -0.12438456 -0.07176284 -0.08857908 0.009511435 0.019653734 -0.18593368 0.028611613 0.36385667 0.04726597 -0.35213965 0.19528878 -0.030551387 -0.1831388 0.046429034 0.2776554 -0.25143743 0.14021955 0.3825094 -0.1679831 -0.20663401 -0.21178193 0.31757993 0.021922817 0.008074993 -0.10890564 0.119221926 -0.24238902 -0.049780812 -0.09962391 -0.047249757 -0.11360988 0.5675999 -0.39190602 0.0937658 -0.11293668 -0.14144345 -0.13820991
30 0.19398099 -0.04508061 0.2236938 0.3177852 -0.090724215 -0.16866952 -0.36799505 0.23617296 0.086838685 -0.03856942 0.12189284 -0.10127551 0.41029286 -0.17572837 -0.08750212 0.5388187 0.29314572 0.1851322 0.304745 -0.06602827 0.21868013 -0.1828708 0.25216126 0.2085839 0.14676888 -0.45778853 -0.4034778 0.012894105 0.11750899 -0.2673283 0.0022013388 -0.009442069 -0.21047017 -0.023748197 0.19266117 0.2487034 -0.03203686 0.25480983 -0.20081812 -0.074655175 0.13968217 -0.063984625 -0.004452984 -0.065 0.18640815 -0.24041563 -0.09482172 0.019931123 -0.09727752 0.028509827 -0.17579317 -0.28459167 -0.35772413 -0.10296388 -0.3345653 0.11527203 0.086468264 -0.06243877 -0.013399645 -0.05526836 -0.20652409 -0.02940903 -0.0924795 0.072275504
315 -0.0023923286 0.047278795 -0.013489958 0.058634993 0.20770176 -0.090914845 0.14850326 0.047570445 -0.03689488 0.12299421 -0.13492197 -0.12871623 0.1371521 0.07767631 -0.27206138 0.42195642 -0.16203631 0.22051129 0.19409649 -0.15918116 -0.1122357 -0.26008257 -0.057944007 -0.0036784415 0.28774312 -0.1594628 -0.07374876 0.05987224 0.007297585 -0.2183799 -0.20540382 -0.14814673 -0.26939178 -0.1383157 0.0024849859 0.21213903 -0.23052351 -0.02525956 0.08816441 0.44736043 0.002214772 0.3299348 0.049763367 -0.032053426 -0.23543172 0.06276406 -0.24486873 -0.037885405 0.259165 -0.14448923 -0.042963803 -0.10133298 0.35468158 0.022933485 0.05113605 -0.03031104 0.36551368 0.17490235 0.28263533 6.1150815e-05 0.2733662 0.074205406 -0.19061773 -0.03692546
103 -0.19285677 0.27557245 0.13560171 0.24735475 -0.07000429 -0.12856689 -0.25903404 0.043803904 -0.4090047 -0.10496787 -0.22654176 -0.021155331 0.40064695 0.07624545 -0.07126337 0.15762855 -0.3704185 0.00096980116 0.06805143 0.14774078 -0.008976963 0.16556577 0.011585192 0.031811345 -0.25267142 -0.17462449 -0.36214665 -0.23152472 -0.075559415 -0.41057545 0.21020558 -0.10129992 -0.19815329 -0.23904137 0.15757191 0.35370928 -0.14739689 0.048682414 0.12427787 0.024528341 0.0919372 -0.15650883 0.272173 0.0257072 -0.20266819 -0.31194317 -0.484777 0.093871005 -0.15261978 -0.06551215 0.21159041 -0.28992477 0.07497503 -0.17699945 0.04722105 0.06447601 0.17853722 0.046570208 0.123424955 -0.16779816 -0.1528467 -0.39322922 -0.106202334 0.19675218
612 -0.079116695 0.25781712 0.3746269 0.05160416 0.23894529 -0.072572865 -0.5668734 0.123144664 -0.22544357 0.1346914 -0.11682873 -0.19402468 0.032205824 0.25253803 0.26098153 -0.07886609 -0.24568504 0.44367892 0.41276866 -0.034466043 -0.116178274 -0.05504226 -0.025812952 0.16525346 -0.06969278 -0.10942809 0.12237627 -0.029056406 -0.053033024 -0.5744664 0.06703196 0.23569514 -0.10077 0.033860005 0.25015393 0.16868186 -0.3073152 0.15114179 -0.18316978 0.09977969 0.009619293 -0.05856908 -0.0027394572 0.5264797 0.005956668 -0.12271178 -0.16727182 0.023723686 -0.07322397 -0.124570094 0.28901404 -0.055822913 0.097350724 -0.23189437 -0.13374934 0.094201155 0.075024724 0.25144267 -0.051118203 0.060111072 -0.0621074 -0.34853992 -0.0908791 -0.08008803
690 0.052741155 0.29606852 -0.1590866 0.39371786 0.09186555 -0.015050176 -0.13310607 0.47913182 0.009691737 0.4821073 -0.25282285 -0.3771503 -0.031019798 0.0065013315 -0.26296166 0.06207574 -0.060933255 0.042570163 -0.187189 -0.33721825 -0.48494235 -0.0034004303 -0.18410678 0.077857934 0.37364116 0.1748448 -0.33566913 -0.13344564 -0.0658998 -0.23113185 -0.2580727 0.21760584 -0.21234633 -0.067339644 -0.04890424 -0.012665864 -0.27126348 -0.14777425 0.0807474 0.011088165 -0.2004991 0.2908266 -0.24227598 0.32890934 -0.039322056 -0.28358898 -0.33407387 -0.13028629 -0.01296283 0.35359323 -0.10817092 -0.379727 0.08670112 -0.0052613774 0.24490765 0.28406724 0.23784958 -0.22892568 0.04884541 0.029508393 -0.0004353849 -0.07116015 -0.24161552 -0.0848638
449 -0.17728773 0.10937271 0.3589686 0.18050954 0.18035422 -0.008223683 -0.44983405 0.17291166 0.11492736 -0.044128414 -0.012924352 -0.03942543 0.117058724 -0.01995887 0.029084047 -0.08190829 -0.2707357 0.24077682 0.09270541 -0.143079 -0.31578818 -0.26476002 0.56244034 -0.0855301 -0.008785509 0.10240765 0.1923969 0.067047335 0.03883051 -0.0100639565 0.28054857 0.19375984 -0.41530862 0.17885928 0.16785651 0.3772029 0.07106011 0.0580533 -0.07372374 0.20469153 -0.13281469 0.10789316 -0.21900675 0.4375918 0.098094344 -0.37635955 -0.21810372 0.005717564 0.009466036 0.057773057 -0.1094759 -0.38389456 0.21827345 -0.37860125 0.09106025 0.028511943 0.48753205 -0.22330016 -0.1016267 -0.06694911 0.0746945 -0.13964073 -0.120280504 0.074671365
466 0.1446315 0.2295445 -0.40341565 0.12669109 0.42795137 0.17900008 -0.09823958 0.1296979 0.43968338 -0.036167707 -0.29168588 0.046911083 0.06166165 0.20082374 -0.20248283 0.57035166 -0.21334198 0.50553864 -0.23027644 0.15848534 -0.2234963 -0.15575913 -0.18278195 -0.19330908 0.09789209 -0.3146948 -0.3149556 0.2799736 -0.20442496 -0.5127583 -0.024132209 0.1670644 0.21584743 -0.16397835 0.031138184 0.39369094 0.26861715 0.011544796 0.106775045 0.32061258 -0.11325648 -0.018644184 0.008763048 0.0072686216 0.13378829 -0.030782955 0.18354058 -0.15949814 0.2571047 0.06819457 -0.15712947 0.14055695 0.026158774 0.13692786 -0.065294616 -0.13215853 0.17244934 0.11796131 -0.031483795 0.058895685 -0.0714537 -0.09807485 -0.22551829 0.021801973
188 -0.24842878 0.29418772 0.17132485 0.0697882 0.03047212 0.23558386 0.33419865 0.32622388 -0.2855871 -0.18847758 -0.4379599 0.027009984 0.24635375 -0.38789853 -0.37640628 -0.106229484 -0.41194898 0.25519025 0.354585 0.06656864 0.23890981 -0.05003555 0.25664783 0.12317894 0.42801437 -0.27621958 0.011430162 0.20014672 -0.31908014 -0.21627969 0.031674374 -0.028223554 -0.1881802 0.19045357 0.12745598 0.007462169 0.18080972 0.09168154 -0.2041479 -0.0012305425 0.013052438 -0.08847046 -0.021368932 0.004748095 0.037102275 0.047011904 -0.10276939 -0.0030822551 0.23611568 0.12877426 0.108291686 -0.39675233 0.08848271 0.16489676 -0.29369467 0.17284073 0.6409742 0.20158193 0.150125 0.08419058 -0.23105146 -0.14751361 -0.8340297 -0.23507881
421 0.32385164 -0.14182879 0.090241864 0.086128175 0.20873907 -0.3129781 0.10161223 0.17394112 0.028153498 0.16375443 -0.23500976 -0.23882087 0.38454416 0.035141774 -0.05153218 0.12876703 -0.16066803 0.49202073 0.05578695 0.03732285 -0.081227936 -0.30188194 0.13133185 -0.36900765 -0.019432364 0.0651332 0.043806046 -0.08227141 -0.08056028 -0.12529075 0.3604481 0.2832298 -0.01742058 -0.11065655 -0.21255326 -0.14925492 -0.14630148 -0.2101881 0.29896092 0.39860684 -0.08676363 0.017091472 0.0009041263 -0.07320977 0.09966396 -0.017956804 -0.4436726 0.121081315 -0.015274787 0.33907032 -0.15847129 -0.45217124 -0.19943127 -0.250636 0.1377508 -0.017063215 -0.0021199933 0.22453031 -0.2527784 0.44724593 -0.25781387 -0.17225137 0.11528997 -0.17230369
827 0.08764504 0.25549456 -0.2022329 0.19444272 0.15470457 0.065584525 -0.16628598 -0.15101586 0.06927161 -0.03612821 0.053502634 -0.034201063 0.26230067 0.12035739 -0.101308264 0.29775304 0.11174827 0.35539952 -0.3246044 -0.075136445 -0.2619434 -0.17131391 0.036953777 -0.045767482 0.050204806 -0.31748754 -0.21415854 0.21131502 -0.14021145 -0.11856268 0.13714062 -0.08786719 -0.6016006 -0.09336836 0.063935995 -0.019065307 0.09161115 -0.041714944 -0.24031752 0.28890568 -0.16075087 0.24338421 0.11451912 0.0056348722 -0.2031364 0.22037068 -0.48610523 -0.09805485 -0.25187188 -0.05052152 -0.029676786 0.19368498 0.08009459 -0.2584987 -0.02201633 0.2538368 0.31544286 -0.021642214 -0.035412114 0.20654988 0.11575719 -0.20898367 -0.33716205 -0.35032904
599 0.38415346 0.101654574 0.32944173 0.06732521 -0.023653869 0.17876557 0.012332945 0.011305989 0.054874133 0.2873462 -0.17849079 -0.18560861 0.47848046 0.15373851 -0.17980081 -0.019743264 -0.16725536 0.41696754 0.08587701 0.37636817 -0.047448736 -0.1573271 0.08733491 0.12695321 0.10579848 0.063529566 -0.3689303 0.23997474 0.075160116 0.06981741 -0.046911377 0.087774366 -0.102188125 0.011327247 -0.045832165 -0.020597566 0.17931782 0.023913506 0.19914706 -0.2628762 0.03142393 -0.10556564 0.019488856 -0.26334637 -0.26420906 -0.42430106 -0.2581548 0.4399906 0.2965973 0.080501765 0.24527925 0.0600083 0.031214133 -0.224473 -0.18924311 0.2963506 0.16764122 -0.10425607 0.529081 -0.33327433 -0.08643395 -0.14878622 0.2146546 0.1909499
31 0.21853758 0.526953 -0.24704775 -0.20695715 0.22886632 -0.22308758 -0.32960322 0.18854827 0.23255704 -0.10564613 -0.39684966 0.09588804 0.12009246 0.41013405 -0.059201572 -0.1315564 -0.28690916 0.1898562 -0.25156534 0.10142375 0.0283719 -0.12949948 -0.07279095 -0.16964042 0.020597825 -0.53473926 0.021063134 0.06870721 -0.15282512 -0.038700577 0.01330302 -0.06881406 0.078749314 -0.4207683 0.456781 0.16655101 -0.28738835 0.1495278 0.33159682 -0.26261553 0.14563534 0.08404275 -0.029004212 0.099802084 0.11081557 -0.092281386 -0.29897007 0.19353442 0.049706865 0.10689741 0.12854625 -0.23598942 0.4367316 -0.035679936 -0.3531057 -0.0643166 0.28201953 -0.39902574 -0.17598191 -0.009755864 -0.20965244 0.12006588 -0.09081761 -0.0440581
393 0.05527803 0.28411403 0.1373238 0.22220533 0.11120437 -0.14195192 0.11894889 -0.097039126 -0.018600263 -0.32386267 -0.202019 0.31670928 0.19293055 -0.09874663 -0.3247754 0.44816315 0.18183413 0.069528066 -0.2937784 -0.09403906 -0.05018765 -0.31250113 0.018116644 -0.43627593 -0.2512348 -0.34763923 0.10826901 0.19041207 -0.14517397 0.101060666 -0.027371466 0.011252244 0.10305228 0.013391181 0.35677415 0.117669575 -0.016038887 0.14696364 0.19676015 0.11512604 0.087056376 0.12273028 0.0047238865 0.08270617 -0.11852993 -0.39617428 -0.8903774 0.19869818 -0.15727338 -0.13933858 -0.074582554 0.00071281806 0.15965907 0.14800793 -0.25168884 0.027132332 -0.23700185 -0.123017035 -0.22033592 0.049408928 -0.30648428 0.1450187 -0.31465366 -0.09524327
872 0.20603089 -0.009160285 -0.018995238 0.0191135 0.17326592 0.06067728 -0.33077776 0.239071 0.3944173 -0.015816912 -0.014558385 -0.2801454 0.52001715 0.18945685 -0.28894952 0.42693028 -0.05199639 0.3992388 0.3080922 0.2813581 0.008278238 -0.102238886 0.2728438 0.012084257 0.12802209 -0.093344525 0.014190688 -0.20893478 0.0468797 -0.030492732 0.05378288 -0.35929352 -0.4329774 -0.28832504 0.0070658918 0.088002644 -0.4146694 0.26977643 -0.1613523 0.30755988 -0.003910964 -0.04557045 -0.087276764 0.03476013 0.1631161 -0.06475632 -0.10059966 0.053082783 0.3047889 -0.13417695 0.42293087 -0.02311675 -0.059568137 -0.19387218 -0.0011539583 -0.36529484 0.010904882 0.116565816 0.15749332 0.04353183 -0.37103233 -0.15608975 -0.018362554 -0.07163342
735 0.101752326 0.35308263 0.08614703 0.1589785 0.061865605 -0.097758465 -0.081644505 -0.15894471 0.41498372 0.37345088 -0.23039934 -0.017787138 0.48886812 0.23126175 0.14968638 0.112371065 -0.20547594 0.28430673 -0.21277517 -0.13478923 -0.027844647 -0.07902665 -0.09775329 -0.3000823 0.2867444 -0.41005537 0.40803277 -0.16032974 -0.05904053 -0.2750563 0.114696264 0.1952628 0.045108505 -0.248234 0.04046783 0.2151668 -0.43212092 -0.21394429 0.23964217 0.08011651 -0.14829771 0.13795234 0.08252918 0.38893473 0.22175959 -0.099494465 0.1094052 0.003956858 0.122748554 -0.14422023 -0.18298233 0.18283156 0.21321 -0.4038107 0.023060167 0.09880825 0.0832411 -0.3626731 0.3245667 0.13868806 -0.3881977 -0.0028420882 -0.19901355 -0.1869287
32 0.19729233 0.081932835 0.23472443 0.030950107 -0.0056304308 -0.27212828 -0.22218211 0.074068874 0.10027732 -0.05569519 -0.2552987 -0.036513858 0.1444442 0.19203778 -0.5375218 -0.0070954445 0.05595633 0.4675027 -0.102417976 -0.20041592 -0.32037205 -0.18664585 -0.06739014 -0.00478332 0.098266155 0.32537156 -0.000604126 -0.08129014 -0.0856917 -0.11551003 -0.14457254 0.17020854 -0.21957473 -0.15124066 0.19773753 -0.011037148 -0.3519464 -0.048329122 0.13003276 0.124414966 -0.20246296 -0.24342044 0.008214621 0.068686835 -0.28229707 -0.106472954 -0.022741826 0.12489542 0.14645752 -0.050179705 -0.32051778 -0.018541545 0.17217502 -0.376892 -0.0332295 0.015292923 0.22141692 0.12783447 0.8136435 0.4040844 -0.05317627 -0.40013847 -0.18639918 0.19444427
861 0.12870969 0.27647936 -0.018274603 -0.24762112 0.16910523 0.03049578 0.4019076 -0.022420421 -0.14599364 -0.30131462 -0.09528012 -0.021017324 0.049822964 -0.09991973 -0.3986902 0.17547666 -0.061402638 0.3793952 -0.28727072 -0.29836446 -0.15760428 -0.1418225 0.047026265 -0.049788125 0.41837865 -0.33649302 -0.32098827 -0.006475014 -0.091830745 -0.27226594 -0.124984965 0.10590334 -0.39632735 -0.09557847 0.086360924 -0.07950435 -0.03527998 0.09304127 0.3081452 0.24084017 -0.3326296 0.28342128 -0.028838098 0.16926162 0.18300435 -0.09548382 -0.33614495 0.10264634 -0.10015829 0.16232835 0.090314925 -0.10374527 -0.11701299 0.07821174 0.15396555 0.20103876 0.14127702 -0.13873065 0.19734547 0.2248659 -0.36624435 -0.17389084 0.018228099 -0.25715882
338 -0.07218447 0.08483877 0.43944862 0.22212356 -0.007466457 0.23972677 -0.31741393 -0.012443664 0.13880454 -0.6520931 -0.3131205 -0.08538209 -0.06994064 0.25838852 -0.09899029 0.20234434 0.040088575 0.3383723 -0.36007977 0.3705213 -0.025635982 0.11314976 0.3360471 -0.17982195 -0.11521778 -0.10825949 -0.21171595 0.2144724 -0.03274327 -0.25275373 -0.4418724 0.15991193 -0.20228724 -0.3074541 -0.099982575 -0.15116167 -0.05811049 0.13708219 0.053033695 0.028890325 -0.31078625 0.029531352 0.24783516 0.1193975 0.06658617 0.07811536 -0.26074812 -0.03990007 -0.0808056 -0.058234856 0.11151854 -0.21996474 -0.11207276 0.04687498 0.26358303 0.3822901 -0.021151451 0.2790554 0.21996054 -0.35865965 -0.18329579 -0.17056356 0.07237941 0.030760612
198 0.36242473 0.21327376 0.25572726 0.19563325 -0.006369709 0.043827113 0.13978054 -0.17398433 -0.015265843 0.11960299 -0.42512327 -0.020987473 -0.0064809597 0.098513655 -0.2999534 0.14745212 0.15640453 -0.0343304 0.16634488 0.09787807 -0.050133493 -0.28847098 -0.12702072 0.1791741 0.48904458 -0.0406877 -0.35895005 0.13605197 0.050426118 0.021448804 -0.16890211 -0.19171552 -0.1269235 -0.3482135 -0.06899141 0.18224001 -0.1761528 -0.31000564 0.039953016 0.024445973 -0.016823553 0.095845886 0.58915156 -0.0782862 0.469613 -0.4144307 -0.11032757 0.17978975 -0.04830249 -0.17890851 -0.27156988 -0.38837028 0.0050630965 -0.24988605 -0.53888005 0.3289118 -0.037759345 0.054961238 -0.32371873 0.093784496 -0.08956214 -0.3301953 0.20520529 -0.09029291
888 0.44848698 -0.21880741 0.26124635 0.07719314 0.00010252725 -0.005753338 -0.06448015 0.30438262 0.14982536 -0.14357416 -0.15215696 -0.024208158 0.15948984 0.010555449 -0.021746585 0.24572295 -0.062762536 0.1737281 0.059634957 -0.1775971 -0.08665059 -0.26878983 0.107753724 0.1687034 0.30067942 -0.47189036 -0.19303203 0.04555646 -0.10327984 0.12553915 -0.3473747 0.27663013 -0.059983674 -0.19639945 0.09999688 -0.08871394 -0.1901828 -0.01771219 -0.10630725 -0.058182333 -0.12880485 0.11416983 0.2305268 0.27693808 -0.34928504 -0.3474839 -0.2707237 0.1610709 -0.015027495 -0.31029338 -0.2056337 0.15258485 -0.06039897 -0.20950173 -0.0645439 0.09949365 -0.2673127 0.068468116 -0.13744715 -0.05502386 -0.19128221 -0.4554275 0.21177301 -0.28162965
586 -0.25324956 0.103917755 0.0024410628 0.1297188 0.45937112 0.07740668 -0.24623187 -0.10761093 -0.20841518 0.029393518 -0.16769867 -0.040609352 -0.06369059 0.16084445 -0.12777862 0.26172563 -0.17477752 0.38697556 0.0023715268 -0.15608394 0.07962362 0.07291627 0.10786646 0.11991206 -0.056646906 -0.29915267 0.009710658 0.3988614 -0.33962697 -0.31316462 0.3340804 -0.1709705 -0.25690755 -0.1567595 0.22144984 -0.10625899 -0.17551462 0.04038746 -0.12199697 0.60155725 0.22871706 0.16183399 -0.12215538 0.16823936 0.1619203 -0.018593747 -0.34480318 0.119825296 -0.20088609 0.023338592 0.037803207 -0.087885775 0.18661012 -0.18261261 0.06723966 0.024683258 0.27665997 -0.07123193 0.13155611 -0.18674296 -0.11273999 0.095977396 -0.36869106 -0.37834522
29 0.2423711 0.23379351 0.0021620917 -0.013385871 0.57815987 0.060386762 -0.19616307 -0.19437644 0.1790534 -0.07541679 0.10852668 -0.27857098 0.27614093 -0.067757666 -0.19911633 0.035537865 -0.007784697 0.39373726 0.15907241 -0.37859502 -0.07095933 -0.29433775 0.23869029 -0.3606173 0.4171386 -0.04439922 0.3785428 -0.027640868 0.0023377957 0.23268318 0.031212484 0.15460327 -0.09513126 -0.095400095 0.030159973 -0.009983557 0.18744138 -0.23110831 0.00507799 0.35390934 0.09407641 0.44533038 0.04917114 -0.035028823 0.21944498 -0.14809299 -0.22978663 0.16957173 0.11820017 -0.17541035 0.12001496 -0.08804017 -0.14464886 0.33055547 -0.27571696 0.045842428 0.20989066 0.31830788 0.2734686 0.12598853 0.035433393 -0.20479715 -0.048578344 0.09931755
70 0.13884564 0.27110484 -0.15009727 0.39619234 0.306055 -0.29042396 -0.35103524 0.32264742 -0.26147422 0.087367244 -0.09098151 -0.010086832 -0.129879 -0.09158965 -0.17913488 0.03103305 -0.26280293 0.1949303 0.14773522 0.35076505 -0.16122803 -0.07696536 -0.26198044 -0.014507035 0.22103298 -0.23117892 -0.14235668 0.17407481 0.12366653 -0.24654098 0.13023554 0.022896366 -0.07854019 0.055170808 0.10040264 0.18814296 -0.34445894 -0.14149137 -0.054424778 0.2797273 0.41318354 0.0037630629 -0.093961805 0.08803932 -0.42483008 -0.3043524 -0.17847927 0.22738427 0.19101715 -0.21377267 -0.053866554 -0.039015427 -0.078306645 0.18061085 -0.12649457 0.29966915 0.46642545 0.011122931 0.16200441 0.009125482 0.126986 0.23531307 0.2951726 -0.14982086
485 -0.34427637 0.31437293 -0.15015474 0.0031686963 0.41912508 -0.49661067 -0.3209022 0.15457463 -0.0023546973 0.11843228 -0.12850715 0.30266905 0.40176126 0.30379418 0.25385693 -0.08445162 -0.20544519 0.42992568 0.3581624 -0.15016498 -0.08888803 0.0459605 0.42730537 -0.09607275 0.19501463 -0.22486405 0.08776802 -0.15825972 -0.27814493 -0.43318212 -0.017944193 0.23380393 0.28771758 -0.2787547 -0.10148311 0.1331184 0.18874802 0.01602383 0.11514437 0.081336334 -0.25643113 0.11642782 -0.41083148 -0.2013208 0.15150587 -0.37182358 -0.31913224 0.24875093 -0.19042438 -0.0037169484 0.06591528 -0.08305959 -0.24648203 0.00055116863 -0.16535828 0.19625998 -0.021628313 0.030049646 0.0475312 0.11942633 0.43317088 0.006137494 -0.027614959 0.22759676
93 0.07985397 -0.30591965 -0.028123263 -0.0581779 0.041975573 -0.12842235 -0.079698175 -0.21421023 -0.17060778 -0.17054069 -0.026530687 -0.05732373 -0.09933485 0.41508746 -0.084923536 0.37800816 0.01634512 0.36777452 -0.080020115 -0.20883404 -0.25637135 0.16702063 0.017779684 -0.18410681 0.021102833 -0.27402502 -0.0036689916 0.25061703 -0.1175429 -0.35881802 0.23426165 0.40188956 0.10891235 -0.22440512 0.5305782 -0.37340558 -0.0033388275 -0.19595206 -0.047027316 0.25360936 0.09083042 -0.08430266 0.30341294 0.0059006424 0.0184074 -0.58048236 -0.16812532 0.006822984 -0.079264194 -0.107599266 0.0997525 -0.48559466 0.12518947 0.011142407 0.33936396 0.1260926 0.03516664 -0.14817128 0.04648118 -0.196411 -0.13820685 -0.34753066 -0.02373088 -0.18485145
106 0.030606342 -0.14109242 -0.01629626 0.6637179 0.35749742 -0.08535447 -0.17286997 0.26470497 -0.10860097 -0.25139597 0.06233877 0.039315224 0.21555962 0.07397137 -0.00047809424 0.52351356 0.21471415 0.31147674 0.6408258 -0.067539684 -0.06469992 -0.2975908 0.086053476 0.08765183 0.14918223 -0.19033216 0.022596847 -0.26622397 -0.1286042 -0.05025265 -0.108634196 -0.13916522 -0.12261769 0.06932327 0.209127 0.0178632 0.019779297 -0.0990799 -0.093099564 0.016545456 -0.24394205 -0.0043834755 -0.042662792 -0.16371377 -0.10144859 -0.030006595 -0.3759448 -0.02123655 0.16223305 -0.28252664 0.2897169 0.15981178 0.22306281 0.32337806 -0.3012355 -0.03318198 -0.1104852 0.32456017 0.047294516 -0.049722563 -0.113893636 -0.2765105 -0.026432524 -0.50207895
214 0.2694483 0.19467954 0.40656647 -0.057742473 0.2927044 0.19471996 -0.20946515 -0.02325942 -0.016928822 -0.27989408 -0.49152166 -0.1528789 0.04320568 0.3075214 0.085517414 0.10588246 0.07689386 0.424349 0.3471785 0.09075826 -0.04273141 -0.0883049 0.07926063 -0.34232917 0.19469719 -0.21180864 0.23833916 -0.06088369 -0.37429702 -0.13520847 0.21487503 -0.0047471966 0.023789885 0.3100069 0.0969317 -0.07755441 -0.41334137 0.13622634 -0.23075631 -0.2834989 -0.34282947 0.46618292 0.2569836 -0.23333931 -0.13901152 0.030273635 -0.08085175 -0.20212196 0.34296966 0.047367126 0.02959403 0.13893054 -0.5268024 0.116543196 -0.17830625 0.3804111 0.44875115 -0.24163638 0.097193055 0.015060683 -0.00048378922 -0.079710215 -0.046723492 -0.116045974
46 -0.16984963 0.17386252 0.3415602 -0.18417001 0.24486512 -0.09845825 -0.13974595 0.17972168 0.4168506 -0.0675689 -0.09906261 -0.1578175 -0.020895133 -0.01187173 0.10267919 -0.23283283 -0.18223107 0.4276449 0.32086942 -0.026917936 -0.10523534 -0.010169972 0.35812625 0.032406118 0.3231858 -0.12549381 0.3720877 0.1487793 -0.25213793 -0.05029187 0.08014705 0.05052835 -0.25776714 0.337853 -0.09482963 -0.006664362 -0.41044855 -0.4619186 0.13943452 0.16730638 -0.037081726 -0.12441509 0.072883956 0.07510137 -0.26690564 -0.016750956 -0.6184596 0.30468416 0.13600889 -0.27647543 -0.07970873 -0.021158673 0.12982765 -0.015562905 -0.20143703 -0.1814236 0.22220778 0.47730374 0.14973731 0.15985554 0.046060737 -0.2551765 0.21070099 -0.11855684
863 0.18149011 0.030052628 0.07498082 -0.39636666 -0.06884159 -0.092303075 -0.2269125 -0.02797748 0.18816505 -0.42864874 -0.2002259 -0.0402386 0.26757658 0.04353798 -0.21844593 0.14786948 -0.0342048 0.2588854 -0.08573378 0.043486837 -0.15981449 0.0924799 -0.04650228 0.11659059 0.2750548 -0.16165037 -0.22745718 -0.17542893 -0.2009887 -0.10199564 -0.1021572 0.109703064 0.20870161 0.03833631 -0.06160443 0.32191887 -0.17514412 -0.1291441 0.08639538 0.15391716 0.09850422 0.059829466 0.12594788 -0.11972454 -0.11243404 -0.19011137 -0.29166573 0.3464009 0.26797092 0.22579068 -0.26192543 -0.2063153 -0.094430424 -0.11626735 -0.11721971 0.16887878 -0.026995413 -0.21822506 0.22150809 0.046936426 -0.026681758 -0.3968544 0.09108202 -0.3829193
461 0.32672718 -0.020513976 0.12857783 -0.020308422 0.09642937 -0.08158697 -0.12195018 0.08923143 -0.29764134 -0.14867991 -0.15560237 0.01168276 -0.057382822 -0.0636862 0.25302717 0.27625698 -0.09717224 0.5176549 -0.17890884 -0.24481103 -0.091283455 -0.15121645 0.3945314 0.13936985 0.36424798 -0.25839823 0.03629114 -0.119619414 0.036070146 -0.15816844 0.056350674 -0.3446095 -0.32349434 0.025389683 0.16615066 0.048416417 -0.41874996 -0.29864982 -0.24391827 -0.19587024 0.12482661 -0.04045225 0.03043331 0.029957246 -0.09483361 -0.25687948 -0.4522382 -0.026000671 0.27850914 -0.30399436 -0.003624367 -0.23716459 0.0033889 -0.04810968 -0.23208642 -0.1980414 -0.08321619 -0.114724204 -0.053757444 -0.22402139 -0.017021902 -0.028706513 0.23413035 -0.04693491
45 0.0110946195 -0.17549226 0.2997292 0.084192656 0.13348584 0.032310273 -0.23595947 -0.026853383 0.124426305 -0.16723524 0.21777667 -0.20687363 0.5006305 -0.0708888 0.10028938 0.23356849 -0.060347576 0.0074738697 0.322105 0.11860157 -0.1784318 -0.05367057 0.29042885 0.12928544 0.077001765 -0.16895768 -0.052164614 -0.16417076 0.19068637 -0.3090078 -0.032550342 -0.16549926 0.049237963 -0.20637584 -0.28187302 0.2488428 -0.38054708 -0.3408149 -0.011284088 0.14834726 -0.08566236 0.19962487 0.31280196 0.41699904 0.0879065 -0.3239441 -0.33760926 0.5745506 0.14976841 0.08805525 -0.07557873 -0.04531387 -0.060836274 -0.10197289 -0.34817073 -0.20582098 -0.07665841 0.059729572 -0.043174412 -0.021255622 0.080229394 -0.063533574 -0.0039591594 -0.33281505
85 -0.08342011 0.12702371 0.017885976 0.28587857 0.36662284 0.07690974 0.08584256 -0.30874762 0.06494092 -0.069488145 -0.34823024 -0.29366702 0.30312607 -0.07987045 0.009899103 0.3083679 -0.1758982 0.38827866 0.12215922 -0.06087067 -0.13050382 -0.23054725 0.42964342 -0.24422428 0.30519497 -0.0055325846 0.21260813 -0.003390354 -0.39065406 -0.31391484 0.2889069 0.46636233 0.2982592 0.14015403 -0.19738768 -0.073606096 -0.3297468 -0.3051416 0.2830094 0.17570718 -0.12203104 -0.08560656 -0.00061203627 0.040925734 -0.16922851 -0.26144055 -0.023711612 -0.06795621 0.06585118 0.060600013 0.119425565 0.03626986 -0.008046713 -0.18574433 0.38159493 0.19252525 0.037510768 0.06486553 -0.15413572 -0.06385804 0.030098096 0.019230787 -0.03775697 -0.07029002
815 0.08181853 0.16399895 0.2537659 0.067007706 -0.09913676 -0.059786577 -0.45856938 0.07199136 -0.0026372708 -0.38322553 0.024976235 -0.02005457 0.15356927 -0.09007845 -0.22251284 0.21639729 0.03529729 -0.046136085 0.39580405 -0.4994234 0.18985988 -0.33237475 -0.11501021 0.026214715 0.35418564 0.012854885 -0.1313344 0.25375324 -0.080965005 0.02610924 0.2669766 -0.07633128 -0.19295263 -0.06944985 -0.048207223 -0.02512352 -0.14354168 -0.20971444 0.08851153 0.21512677 0.31682965 0.2193288 0.2031537 0.1008257 0.18130161 -0.2961454 -0.5826301 0.05717128 0.07270917 -0.1464882 0.022749668 -0.119493335 -0.21076344 -0.26481405 0.008582836 0.22814485 0.13318983 0.3187615 -0.0884468 -0.0012166493 0.09027857 -0.13408802 0.05560751 -0.049958996
252 -0.0790788 -0.035717662 0.13425861 0.0764464 0.23000816 0.026057996 0.049371596 -0.05282057 0.37058046 -0.3086518 -0.22036374 -0.078199826 0.31315657 0.29021364 0.5015937 0.18767165 -0.48806468 0.27622613 0.109292306 -0.31609467 -0.2052078 -0.26420856 -0.10254908 0.10249432 -0.04448587 0.0008410195 0.031113036 -0.10631284 -0.2583772 -0.18426728 -0.087887466 -0.22362243 0.26704666 -0.16159147 0.18230604 0.005653602 0.014234343 0.13746436 0.21129832 0.25981498 -0.007933308 -0.06825226 0.6279091 0.01970467 -0.053077158 -0.41088516 -0.46028823 -0.23155199 0.0049563525 -0.21559602 0.024664262 -0.18551941 -0.13247256 -0.18525727 -0.13128838 0.05204066 0.006739873 -0.12937099 0.1365944 0.022240395 0.17947428 -0.021193374 0.08929056 0.21855918
419 0.26886904 0.17499287 0.1488534 0.15153074 -0.24016467 -0.09930101 -0.46267495 0.12093138 0.07294054 -0.5683232 -0.09340313 -0.04129284 0.099692486 0.09128382 0.17623246 0.20171258 -0.21643282 0.05066218 -0.09640946 0.21655476 0.12047824 -0.1767309 -0.087919556 -0.25563356 0.16267379 -0.349811 0.119075805 -0.017241122 0.07429074 -0.117231295 0.031305227 -0.15023677 -0.04712046 0.057348214 0.19145194 0.26397008 -0.060963523 -0.15845706 0.029301684 0.29677308 0.2603512 -0.41712382 0.12240384 0.20104639 -0.20693 -0.21278988 -0.52297145 0.056104463 0.10042558 -0.19174305 0.062206034 -0.21930055 0.2775991 -0.47062302 0.20086136 -0.1835569 0.4262392 0.13210912 -0.041243777 -0.02753386 0.3257544 -0.20224485 0.2876416 -0.07326333
66 0.041849125 0.18065904 -0.0017667636 0.2837043 -0.010811013 0.090854295 -0.04309904 -0.09898727 0.1287914 -0.2385719 -0.26777738 -0.12689056 -0.07219737 0.14528088 0.08209787 0.044300973 -0.4186068 0.61850953 -0.042527102 -0.2562658 -0.2433148 -0.14317234 -0.03200426 0.5459236 0.12922329 0.14827855 -0.017715862 0.21069808 -0.08531121 -0.20779935 -0.15107669 -0.20977494 -0.016460363 0.1659409 0.084457405 0.16667134 0.004858017 0.05369712 0.20688038 0.32759997 0.42312193 0.10490143 0.22142933 0.23724864 0.19665372 -0.31611723 -0.39463982 -0.13164666 0.089943424 -0.04823045 0.12308166 -0.18373814 0.12350431 -0.15796882 -0.18556052 -0.033034626 0.27454987 0.03338396 0.2869803 0.034161698 0.00916984 0.16599856 -0.05887246 0.21456756
726 0.11848271 -0.27348235 0.03281292 0.123456456 -0.33936486 0.39494857 0.015519695 0.08184959 0.07619336 0.036524832 -0.26194686 0.019061396 0.13657583 0.21900818 -0.25569272 0.20187703 -0.35264763 0.57412666 -0.15357557 0.1127845 -0.08312794 -0.4733077 0.064760044 -0.042599265 -0.0816965 -0.1276275 -0.18349445 -0.09768345 -0.33207646 -0.22973387 0.122881435 -0.13260889 0.18123586 -0.0115370145 -0.07526083 -0.017043786 0.40677026 0.22284232 -0.2825816 0.24688992 -0.07890131 -0.078900374 -5.933112e-05 0.090878054 0.081489414 0.043456435 -0.45843115 -0.32012987 0.30967608 0.0370766 0.17500551 -0.24776761 -0.17240751 -0.33589318 -0.21862385 0.4453876 -0.024491172 0.04507822 0.08659331 0.20759527 0.33682576 -0.009905974 0.04944497 -0.32044205
236 0.14442301 0.050747234 0.013222985 0.02352293 0.07943617 -0.1557148 -0.3520358 -0.450003 -0.0326203 -0.19013394 -0.104870655 -0.29813483 0.118145734 0.0022201973 0.08948357 0.029550856 -0.17163952 0.23989488 -0.1020505 0.24019492 -0.42873502 -0.21366797 -0.23398745 -0.14789335 0.09869182 -0.10246422 -0.1698764 -0.08334547 -0.28952342 0.047156 0.32212314 0.10335998 0.04469505 -0.052375186 0.049510222 -0.08774447 -0.53234094 -0.10128086 0.23002946 0.17881139 -0.25121617 0.36963755 0.13214147 -0.18041925 0.12449946 -0.22467196 -0.25757962 0.23497479 0.12982826 -0.021363236 -0.35863996 -0.42857406 0.037961014 -0.13139743 0.22564851 0.16377887 0.3151871 -0.16172796 0.115791015 -0.04827258 -0.023498362 0.1218037 -0.21763955 -0.31245452
4 -0.16214661 0.04591548 0.352581 0.3074553 0.21993172 0.30838057 -0.130834 0.11507078 -0.23946369 -0.107493356 -0.021422723 -0.32183033 0.3425939 0.17276382 -0.48036844 -0.20024657 -0.22408903 0.41360125 0.10691139 -0.22941111 -0.09377274 -0.21297938 0.12703693 -0.3051694 0.32836014 -0.04242269 0.24220364 0.061237454 0.41585815 -0.63775057 -0.3247323 0.18681882 -0.0775898 -0.03964576 -0.23312144 0.04949502 -0.035843287 -0.19508646 -0.08706109 0.27542856 -0.2608598 0.40399042 -0.27589726 -0.34103334 -0.14180227 -0.07097799 0.065808594 -0.20148502 -0.07235601 0.12192756 -0.004033808 -0.5864474 0.028786717 0.03888219 0.3812455 0.011750573 -0.034576125 -0.011645912 -0.06725056 -0.12387068 0.23430781 0.089817606 -0.26326177 -0.18709832
380 -0.11591031 -0.020147229 0.16143872 0.17829725 0.080414474 -0.05062213 -0.18774214 -0.13143694 -0.08732371 -0.26423645 -0.3226297 -0.14412405 0.54690456 0.196145 -0.047863998 0.11182677 -0.07725567 0.04890985 -0.032410216 0.0982549 -0.071306005 -0.24164833 0.47355673 -0.1655041 -0.09253703 -0.5623253 -0.15501507 -0.00986189 -0.07809706 -0.18531685 -0.13077395 -0.1504746 -0.17468698 -0.011202273 -0.14689632 0.094194286 0.24003246 -0.23261683 -0.1728336 -0.11468304 -0.017674252 -0.059216935 -0.4048897 0.046618566 0.22470452 -0.17449953 -0.36780947 -0.01195319 -0.116917774 -0.1772906 0.056213055 0.20422623 0.23065071 -0.28879577 0.3256925 -0.040704872 -0.037950665 0.052132167 0.24511513 -0.04958291 -0.20228867 -0.1520989 -0.20723127 -0.39582002
230 0.36615443 0.31222475 0.36101586 -0.12792453 -0.40108487 -0.23003939 -0.08607197 0.07848556 0.2678788 0.40739438 -0.23929441 -0.27689296 0.0907618 0.39361683 -0.11454041 0.10277698 -0.19606838 0.27797005 0.19329715 0.27139455 0.3873591 -0.46914446 0.068401724 0.07704929 -0.002456133 -0.61641127 -0.11165377 -0.1593842 -0.17286739 0.0932033 0.14611398 0.020851644 0.075008124 -0.023448218 0.3331519 -0.25229615 -0.21221721 -0.045664176 -0.36306688 -0.04151993 -0.18978462 0.2891351 -0.07468697 -0.14371489 -0.1342077 0.09265706 -0.19832684 -0.11812937 -0.027997876 -0.06956087 0.31678492 -0.11176967 0.040926334 -0.107933305 -0.1989427 0.65864915 0.22979751 0.04763125 0.011472988 -0.006395571 -0.5811686 0.025780514 -0.30172557 -0.13341726
895 0.27760655 0.601382 0.10673666 -0.44299957 0.10455129 -0.21882637 -0.11294994 -0.2259845 -0.38821292 0.06005243 -0.27776876 -0.20967197 0.13896409 0.22276828 -0.09759939 0.477137 0.12357926 0.2644324 0.06348959 -0.08696124 -0.0651278 0.2883611 0.123122826 0.45803073 -0.045203872 -0.1421321 -0.0054604183 0.08454356 -0.093656786 -0.29211023 -0.20108749 -0.08127511 -0.1040398 -0.38669157 -0.18027082 0.08892642 0.253999 -0.09576136 0.22550333 -0.060885195 0.08242356 -0.09779362 0.07517346 -0.06888389 -0.11912943 -0.10961243 -0.33763084 0.32530886 0.08379968 0.115428515 0.019937389 0.0060798116 0.1675025 0.2041868 -0.117458865 0.1910734 0.38610712 0.16414909 0.03892924 -0.1420495 -0.31055257 -0.5429745 -0.16816728 -0.15006073
715 0.022211023 0.28875276 -0.07089653 -0.15362656 -0.06343402 0.17707512 -0.1942233 0.2928188 -0.021387434 -0.029556043 -0.7877438 0.07448033 0.22074902 0.06456648 -0.2421999 0.5467579 0.17896341 0.4257869 0.061921205 -0.5116517 -0.038283028 -0.31802306 0.12751013 -0.21911211 0.10380073 -0.1405037 -0.20809585 -0.16390441 0.13207507 0.0071822116 -0.055722818 -0.19092524 0.13463123 -0.10529172 -0.32498327 0.28351733 -0.04802329 -0.010515502 0.13629813 0.23324528 0.08945088 0.03543193 -0.008124954 -0.24592105 0.21193106 0.11501474 -0.31664315 0.13867389 0.03978317 0.037947543 0.032003548 -0.1983994 0.0015680275 -0.08357401 -0.16325559 0.3280164 -0.12917534 -0.20496702 -0.042938035 0.23553787 -0.3252495 0.08395685 0.03801604 -0.124206565
845 -0.028199509 0.2326756 -0.20819929 0.093769416 0.12329213 -0.094550386 -0.5440711 -0.04875807 0.012524 -0.017326014 -0.1621842 0.3013428 -0.12101821 -0.18516742 0.24813503 0.20586365 -0.053634528 0.310482 0.057035066 -0.02669893 -0.19089217 0.0734771 0.18609081 0.16746472 -0.1509965 -0.3199564 0.23251621 0.18457922 0.31063306 -0.097091384 -0.0012192242 -0.09241899 -0.3724619 -0.015108352 0.06780567 0.05272821 0.17437613 -0.020553743 -0.027646482 0.22497676 0.2016103 0.26103854 -0.120070904 0.1763914 -0.08139534 -0.071442105 -0.5345932 0.017483423 0.30188233 -0.023254918 -0.066213965 -0.40170854 0.38406995 -0.094152264 0.24327293 0.19027975 0.2113127 0.0067507518 0.16956453 -0.46465385 0.0071506375 -0.17719616 -0.273946 -0.31051224
155 0.1837805 0.24476615 0.19307198 0.06263737 0.08756716 -0.34880477 -0.35870752 -0.20333865 0.12587546 -0.33386377 -0.36672872 -0.41089582 0.092411876 0.037093937 -0.14023158 0.063617796 -0.11181729 0.03014807 0.15313536 0.05859006 -0.16422796 -0.03712611 -0.095880866 -0.04098907 -0.14144748 -0.34853038 0.25042665 0.039629675 -0.038627896 -0.19720459 0.0457199 0.021645622 -0.29890513 0.16099952 0.13446563 0.24428554 -0.06598289 0.13286296 -0.20124978 0.21497457 0.31759515 -0.19668849 0.17030005 0.16446127 -0.075951226 -0.34880355 -0.16878699 0.27849165 0.009889757 -0.043566998 -0.022604639 0.04274413 -0.11557016 -0.2709778 -0.0051810322 -0.0036965641 0.38920552 0.10103879 -0.2542151 -0.1769796 -0.10112627 0.13489377 0.05231208 -0.21652071
76 0.0855845 0.14022863 -0.06045116 0.1022363 0.1233518 0.01635212 -0.054507818 -0.45968592 0.27998897 -0.1429352 0.0147725325 0.291044 0.21592985 0.017385859 0.0628774 0.410833 -0.4406839 0.29985866 0.539265 -0.4448719 0.14699315 -0.14030005 -0.07417332 -0.6455513 0.4519682 0.17022988 -0.36977983 0.07071625 -0.17873907 0.10712752 -0.021571856 0.05417188 0.34058356 -0.04293097 -0.001460528 0.105876006 -0.07567419 -0.14716275 0.14216056 0.045609467 0.14335291 -0.07490137 0.2857468 -0.20448427 -0.038440883 -0.3835681 -0.31377742 0.30356723 0.10620733 -0.11026552 0.19951494 0.018268129 -0.09331451 -0.14375095 -8.276934e-06 0.3998776 -0.027170341 -0.14846495 0.18559118 -0.28511715 -0.24811946 -0.2866403 0.055146206 -0.08327747
792 0.34153804 0.12119288 -0.027661677 -0.12638643 -0.07466584 -0.086117566 -0.057944812 0.10259697 -0.030307546 -0.3533494 0.0778615 -0.06547855 -0.13623288 0.055202466 0.1944197 0.21439056 -0.19679931 0.31817725 0.023494612 -0.042533625 -0.12677518 -0.053658936 0.14421815 -0.03163993 0.096317574 -0.24856389 -0.14078392 0.099202044 -0.041200083 -0.0358738 0.4784205 -0.058669537 -0.19335571 0.04475466 -0.07042604 0.39580667 -0.22458728 0.015432498 0.1180747 0.10197118 0.095825754 0.20313752 0.21181114 0.3367298 0.01826753 -0.41526967 -0.55783105 0.19861573 0.21147126 0.010927062 -0.043288503 -0.30014214 0.2803369 -0.3278577 0.026319005 0.45122606 -0.11060574 -0.035562534 -0.16234724 -0.15107435 0.1413722 0.030193718 0.10482815 -0.099235095
215 0.074744694 0.51619124 0.38480458 -0.10815722 -0.010142684 0.31251836 -0.09257958 0.14126141 0.028950484 0.26286286 0.1033209 -0.47474772 0.43759924 0.14927638 -0.06207319 0.11328782 -0.26578698 0.57606846 0.23831613 0.18447071 -0.26174125 -0.16915591 -0.33299682 0.17121117 -0.27153197 0.02510583 -0.049076527 0.21776469 -0.055055454 -0.30718097 -0.27360418 0.41393596 0.13988909 0.11882781 0.06397327 0.16632424 0.33964068 -0.003040996 0.08143166 -0.30559832 0.24147621 -0.2443084 -0.19692169 -0.14657651 -0.32959628 -0.16864958 -0.15123132 0.028267555 0.061611656 -0.16775967 0.20854247 -0.22372621 -0.12069943 -0.18202706 -0.31455535 0.23116726 0.04744971 -0.19070876 0.45868537 -0.13459647 -0.10991466 -0.014972316 0.23363417 -0.2766583
703 0.19846725 0.3051535 -0.122367576 -0.10526843 0.19347806 0.12741089 -0.48658457 -0.0028835153 0.021393256 -0.41721782 -0.19300562 0.15884225 0.078114055 -0.11413094 0.043213643 0.17372291 0.04018029 0.3444857 -0.088859916 -0.18300617 -0.13397089 -0.30402467 -0.097645335 0.0048740855 -0.03815372 -0.18678787 0.18137547 -0.09553367 -0.06321739 -0.12088924 0.09135981 0.3374388 -0.2498551 -0.052930508 0.27086425 -0.5244187 0.021898253 -0.3012004 -0.04900386 0.21819367 0.05052758 -0.14729467 -0.122368164 0.32801548 -0.031040957 -0.5545335 -0.009655467 0.09629889 0.13224393 -0.08490724 -0.22182962 0.18300958 0.09256481 0.057866544 0.41253522 0.44403657 0.42185992 -0.1638994 -0.14036219 0.08415884 -0.17541975 -0.040045727 0.026506398 -0.3004772
773 -0.122871615 0.00060028303 0.00999401 0.22545946 0.084140174 -0.0012779025 -0.62964374 -0.23503295 -0.38191533 -0.06604983 -0.27931416 -0.058108494 0.6827026 -0.16172296 0.035168316 0.2135085 -0.063708514 0.4094568 -0.0038171224 -0.012922121 0.30604637 0.07909873 -0.012105171 0.17761746 0.14431965 -0.26034638 -0.046910603 -0.106666505 -0.085051 -0.005909904 -0.27287558 0.0034000445 -0.3072362 -0.011020297 0.29900447 -0.10512329 0.17793703 -0.24664967 -0.36639532 0.045834906 -9.838449e-05 0.034704518 0.016302984 0.3780509 0.0034241541 -0.29787856 -0.14987381 0.3478888 0.21565112 -0.19963633 -0.16763102 -0.28456596 -0.13654107 -0.15177667 0.24216461 -0.12273558 -0.30597883 0.30541813 -0.13665383 0.15813205 -0.13403267 -0.29408407 -0.11669997 -0.43604493
223 0.21595412 -0.13620393 0.024819573 -0.1718912 -0.07691197 -0.10120509 -0.4484095 -0.06631183 -0.039756685 -0.21184449 0.024833871 -0.33579338 0.28717133 0.08354847 -0.35978162 0.22936048 -0.3896397 0.20755439 0.1170234 -0.0838869 -0.041837085 -0.19315432 -0.34637132 -0.13043457 0.11834466 -0.05925905 -0.30484793 -0.13348617 0.15204328 -0.052450635 -0.11424425 0.115686186 0.08099439 -0.33343506 0.07130868 0.04650389 -0.51833284 -0.07520275 0.17762123 0.23050827 -0.030957554 -0.029272288 -0.18796818 -0.20711832 -0.15238711 -0.3281051 -0.18282893 0.29261717 0.2562165 0.25221154 -0.2547066 -0.2666448 -0.046284582 -0.24541305 0.27931252 0.16425598 0.0003663504 -0.04168076 0.07642009 -0.013520812 0.021973977 -0.06993338 0.016187482 -0.258655
589 0.06057709 -0.20851217 0.41247144 0.13365905 0.3353004 -0.177186 -0.255037 0.2878474 -0.1665251 0.22918396 -0.15859039 -0.0336429 -0.12365411 -0.23580877 -0.04770608 0.44889966 -0.14192364 0.4084934 0.15470788 -0.21308726 -0.120517746 -0.33084148 0.15027253 0.18665297 0.21865359 -0.4416483 -0.072426274 -0.41171926 -0.08160982 -0.08508041 -0.07701097 0.2689178 -0.32531196 0.050924286 0.19843876 0.11660492 -0.14550836 -0.15976442 -0.2640501 0.05054702 0.1186951 -0.09010651 -0.074099876 -0.14629726 -0.0030452325 -0.30828223 0.11715567 0.2686497 0.022265596 -0.2988054 -0.3381022 -0.08449688 0.17978585 0.17394875 -0.60150945 -0.04063557 0.3865725 0.42484877 -0.31359833 -0.43508694 0.04761148 0.21922074 -0.1677267 -0.026855817
114 0.23419245 -0.121415325 0.18426344 -0.31964982 -0.2690902 0.02451349 0.066082865 -0.075397044 -0.023409802 -0.31294602 -0.38234827 0.03579615 -0.06763963 0.18994437 -0.13657889 0.18033963 -0.035246897 0.20205429 0.041303314 -0.01676286 -0.21500638 -0.52328044 0.1330032 0.11289044 0.0067976997 -0.24625139 -0.69706756 0.017003013 -0.21146119 -0.17941767 0.12596306 -0.2062165 0.19496518 0.002540434 -0.1461096 0.24232826 0.011836361 -0.28104976 0.12008135 0.22695172 0.116594255 -0.19001463 -0.11467639 -0.24546842 0.06391508 -0.15183368 -0.34601897 0.054729026 0.03369821 -0.21302898 -0.14840768 -0.2039833 -0.053452592 -0.16021477 -0.056524303 0.06336076 0.18727121 -0.018131569 -0.021337979 0.08236733 0.13413367 -0.42697605 -0.05781977 -0.61698645
459 0.18559398 -0.084056094 -0.14829947 0.1854249 0.18669857 0.40538934 -0.23530565 0.41067427 0.21056516 -0.28667545 0.050049827 0.17334567 0.2753259 0.11990115 -0.11939075 0.049815677 -0.13429753 -0.07033613 -0.2608461 0.08523294 0.04921132 0.05059621 0.15794079 0.099316254 0.33086076 -0.16191912 -0.29339805 -0.08394681 0.17275926 -0.5575765 0.037442893 0.024343241 0.055851437 -0.10274021 0.21326578 -0.057981543 -0.11454669 -0.28161988 -0.113588355 0.42444763 0.21358813 0.30453464 0.13071266 -0.30272925 -0.43942767 -0.40829194 -0.4343762 -0.058638807 -0.1849953 -0.4880484 0.30258548 -0.097367875 -0.16310875 -0.14714101 0.24934354 0.3032637 0.23517446 -0.09400869 -0.23797356 -0.02111174 0.06754549 -0.158443 -0.053425167 0.15891318
495 -0.22759277 0.3636466 0.30200255 0.29256427 0.35243547 0.5117043 -0.47816545 0.045177016 -0.10385408 -0.028637093 0.027999567 0.34251657 0.33103916 0.2169839 -0.42867005 0.30858785 -0.0213705 0.3518846 0.3671306 0.07931429 -0.22200397 -0.09661458 0.43948212 -0.2611321 0.07382104 0.27403948 0.11915142 0.47375557 0.20856987 -0.32831356 0.17566562 -0.024605779 0.17811833 -0.06880673 0.1210239 0.5184474 0.32779542 -0.26888406 0.31355897 -0.012017136 -0.19329268 0.33074337 -0.2615863 0.041532967 -0.017962022 -0.031116901 -0.17945136 0.064016685 0.04849731 -0.022225905 -0.117625475 0.04477175 0.34187964 -0.38040173 0.024068875 0.22945394 0.0010738578 -0.019531377 0.008628221 0.11296237 -0.0247762 0.097517416 -0.2213248 0.095438324
533 0.51042086 0.54890436 0.0624723 0.16410102 0.09485659 0.040415883 -0.18519501 0.1908228 -0.0103823505 -0.04667158 -0.29552948 -0.6466871 0.2335304 -0.06808551 0.031308718 0.08107282 -0.1124791 -0.0017442144 0.29269537 -0.46672332 -0.44297236 0.11134 0.068057746 -0.0066028293 -0.21698755 0.11127339 -0.2122028 0.1224346 -0.04641196 -0.17499632 -0.13973442 -0.012678749 -0.025976257 -0.09641993 0.115403295 -0.22602955 -0.10122621 -0.04093584 -0.17923746 0.42915905 -0.14607383 -0.12777671 -0.021656718 -0.09143538 -0.30164376 -0.4976928 -0.18725684 -0.007896156 -0.071431376 -0.21284997 0.11396843 -0.15525922 -0.14803806 -0.11389182 -0.19539542 -0.0649909 -0.06767272 -0.13962498 0.39267978 -0.068228275 0.40912086 0.568502 0.0071338075 -0.23676513
530 0.42683482 -0.16850813 0.290507 -0.066798285 -0.10192022 0.07327581 -0.010628084 -0.024513103 0.13360755 -0.04000195 -0.2147534 -0.098490044 -0.36147234 0.18324342 -0.08434364 0.34946567 -0.20178375 0.04860626 -0.2021125 0.045446087 0.29687187 -0.37790045 0.10639378 -0.27659363 0.1830831 -0.3244362 -0.33220372 0.21831068 0.020392697 0.027294878 0.32298943 0.11008752 -0.4317817 0.13502823 -0.042926483 0.10629623 -0.28737727 -0.30775285 0.2018876 0.15096095 -0.17784002 0.038790114 -0.0473571 0.25877637 0.010533271 -0.25539613 -0.3702275 0.43857172 0.35522118 -0.099556506 -0.01771682 -0.18868066 0.09373673 0.25517085 -0.27445024 0.12385719 0.11252698 -0.09139508 0.11522044 -0.268735 -0.35208473 -0.2944299 0.097617134 -0.17235476
688 0.16518082 0.3091446 0.27893528 0.37242645 -0.03711482 0.027909404 -0.044871356 0.1610696 0.34729344 -0.38009095 0.12981315 0.104707174 0.10516444 0.5998209 0.05554768 0.33004063 -0.4888022 0.10194855 -0.018846085 -0.15464872 -0.21301965 0.42905807 -0.050669592 0.16364501 0.07187057 0.06305339 -0.29874796 0.18617077 0.26756373 -0.12528352 -0.09510128 0.046099175 -0.23336247 -0.13999373 -0.2260123 0.3290835 0.12509733 -0.299171 0.03364953 -0.115665436 0.08428639 0.09960804 -0.008651306 -0.059877083 -0.44762912 -0.35104898 -0.14645793 -0.14836621 0.54574776 0.0245483 -0.15785272 0.3311683 -0.40171948 0.000536421 -0.22685416 0.42281365 -0.028831858 0.21806028 0.11768 -0.1513357 0.13060854 -0.15002027 -0.50483656 0.075690046
566 -0.19473352 0.05755809 -0.10123133 -0.015988844 0.14569065 -0.1385091 -0.16043088 -0.10424052 0.28187454 0.0016362792 0.23698272 0.4155243 0.34785983 -0.107648306 -0.06757619 0.15309972 -0.35934106 0.404622 0.20951426 -0.089694105 -0.18238486 -0.4708779 0.46408132 0.14772016 0.16517691 -0.06826395 -0.022071565 -0.04091917 -0.15413833 -0.12355881 -0.22416851 -0.029602738 -0.27600175 0.042129375 0.3935696 -0.2763013 0.3879468 0.0939161 0.73439187 -0.10290595 -0.042102017 0.1502187 0.089161664 0.32703918 0.19140096 -0.11792708 -0.3730488 -0.20582552 0.10751379 -0.24736296 -0.048541874 -0.058021817 -0.24595484 -0.060136136 0.09241631 0.17830426 -0.1938935 -0.06386629 0.33479103 -0.17524092 -0.031592183 -0.35631242 -0.28521067 0.0037302433
84 -0.00467345 0.43375862 -0.01488218 -0.06869891 0.1828421 -0.2817381 -0.26456994 -0.0055023427 -0.052721567 0.26730144 -0.46100265 0.1344214 0.30012304 0.4514255 -0.07644834 0.13264401 -0.012715903 -0.16619667 -0.15464139 0.001579026 0.022522505 -0.42283073 0.38690013 -0.5667919 -0.10646545 -0.020424431 0.0652363 -0.0403562 -0.3503152 0.1488794 -0.41561645 -0.087065116 -0.37650695 -0.23812492 0.08295146 0.10334779 0.525405 0.08067961 -0.07708407 0.07872263 -0.15529312 -0.22106895 0.07366724 0.057080105 0.3002528 -0.44320253 -0.45041177 -0.16308272 0.49118456 0.15006275 -0.13716342 0.11118073 -0.007129634 -0.08637972 0.022659156 0.19296353 0.14986657 -0.019843133 -0.37230742 -0.25877666 0.073076725 0.0029512288 0.16949958 -0.33827522
88 0.07228651 0.285062 -0.017725525 0.1945457 0.10119589 -0.042898793 0.006895855 -0.1318705 -0.088193566 -0.14189638 -0.23580189 -0.035691608 0.22278967 0.157291 -0.0007308887 -0.06688248 -0.3617585 0.39057034 0.08070449 -0.5949338 -0.0796785 -0.39225394 0.1355646 -0.019161828 -0.10937978 0.25876623 0.23016788 0.2519007 0.1144463 -0.17384239 0.1121631 0.09087391 0.029473646 -0.6007803 0.41504064 0.3706137 0.053058393 -0.0294103 -0.04480599 0.4003214 0.09870534 0.1974432 -0.35959962 0.23153515 -0.2550895 -0.35716566 -0.18601675 -0.28366867 -0.14141801 -0.17057022 0.23933657 -0.22536176 -0.108772986 -0.039221797 -0.20491141 0.11874506 0.13645044 -0.09825879 -0.05615905 -0.48084122 0.17638372 -0.024857556 0.1310543 -0.21161447
722 0.38961002 0.09361343 0.35918075 -0.049876284 0.13599837 -0.13812864 -0.029539261 -0.023058478 0.26933655 0.28236234 0.065683655 -0.13412006 -0.13365223 0.40442452 0.16576204 0.25261995 -0.00050296367 0.30922118 -0.13112028 0.41592994 0.064680584 -0.42450646 0.23555925 -0.01927591 0.08711656 -0.19230855 -0.035508584 0.05389602 0.16469774 -0.21580476 0.09523849 -0.13873786 0.08557187 -0.026731048 0.095504664 -0.12286422 -0.24464817 -0.15723293 0.30630323 -0.31094524 -0.23976265 0.38353845 -0.16073115 -0.18001352 -0.09792231 0.06148611 -0.026155075 0.28531647 0.49333623 0.17812961 -0.18736771 -0.81503433 -0.16577864 -0.47384647 0.017589139 -0.10069822 -0.022654753 0.052895255 0.2751963 0.43629995 -0.24435212 0.11113963 -0.28630525 -0.007019885
467 0.25890228 -0.1629697 0.31009367 0.53966767 0.19426431 -0.38270387 0.007000863 -0.043840166 0.112994336 0.18158723 -0.09956908 -0.15315047 0.07235877 0.5517865 -0.084022924 -0.13152564 -0.17912099 0.3527157 0.12258321 -0.23151228 0.14506337 -0.3421304 -0.18781117 0.15453751 0.1785042 -0.21845329 -0.1955081 -0.13838714 0.055488955 0.2156386 -0.21946374 0.25455078 0.11264173 0.03905344 0.10936499 0.35240552 -0.4316551 -0.2592804 -0.10844176 0.015278852 -0.42079085 0.32873067 0.046924405 -0.080383055 0.07638369 -0.300791 -0.3566382 -0.24603203 0.029263536 -0.052022714 0.06879547 -0.26710373 0.43953586 -0.6657997 -0.14089122 0.19717805 0.13438188 0.22428001 0.4327265 -0.14670455 0.1581378 0.29027197 -0.31476206 0.5653272
657 -0.31609 0.25012484 -0.28759706 -0.06678602 0.5343319 -0.04561875 0.017830294 -0.43055558 0.18484467 0.06854107 -0.21678665 -0.31812447 -0.07931855 -0.0048644366 -0.21159728 0.23957102 -0.11086988 -0.03790067 0.47173047 -0.16564283 -0.13825278 0.024656832 0.1477679 0.019454798 0.07235189 -0.36687616 -0.25551134 0.087174185 0.18672799 -0.5724512 0.10978347 -0.27378166 -0.10049897 0.22039461 -0.006916788 0.045357052 0.20490287 0.22280882 -0.2611466 0.21837205 -0.6458334 -0.368711 0.06419998 -0.070627406 -0.14512184 0.022128792 -0.5636763 0.0362562 -0.17980365 0.052552607 -0.14677046 -0.38451877 0.06395656 -0.260742 -0.17785098 0.20960385 0.061519064 0.05711041 0.13342772 -0.32539853 -0.17574508 -0.28045863 -0.39557213 -0.012321716
569 0.38457218 0.11743415 -0.16848934 0.09994416 0.12381293 0.05319771 -0.13286993 0.014979314 -0.10579577 -0.28480923 0.14526603 -0.17644264 -0.052335296 -0.07621978 0.048782993 0.49422795 -0.03423871 0.320832 0.37174103 -0.08298404 0.10181496 0.035395402 0.111193255 0.060042176 0.3706373 -0.28836742 -0.391651 0.15323606 -0.19805796 -0.18147399 0.45002648 -0.21850438 -0.20048508 -0.04139962 0.2730195 0.07874381 -0.0687146 -0.37814376 0.12800485 -0.13634701 0.049302876 -0.2511406 0.032641444 -0.066521704 -0.35965586 -0.45458427 -0.18525486 0.33672756 0.15522026 -0.017842306 -0.34057188 0.03967681 0.13569498 -0.21167748 -0.096448556 0.26808316 -0.40038833 -0.027112838 -0.079704344 -0.35083914 0.38330674 -0.2102069 -0.045732375 -0.32232568
492 -0.07430332 0.121592596 -0.14354873 -0.08855768 0.06159199 -0.12559457 -0.07422471 -0.1223707 -0.07025881 -0.28408167 -0.3714133 -0.05187422 0.21259022 0.22771092 -0.18908548 0.31164494 -0.26668885 0.36286867 0.14424983 -0.042756073 -0.09332664 0.003197637 -0.25049874 -0.143935 0.036113877 -0.4311257 -0.0334377 0.07351732 0.06691869 -0.10429048 0.17723976 -0.24914797 -0.19164836 -0.22894402 0.107547425 0.21690667 0.030810842 0.20974442 0.18738173 0.29298672 0.3733251 0.07043824 0.34059504 0.06242578 -0.058861285 -0.26041824 -0.1308339 0.09300638 0.32020855 -0.21523929 0.20601259 -0.14731975 -0.0059178704 -0.40082064 -0.026367452 0.21317531 -0.035289064 -0.06733066 -0.18017359 -0.08253623 0.1042068 -0.188137 0.20520064 -0.2010275
666 -0.36677185 0.03586759 0.13564605 0.22413532 0.1858244 0.16299874 -0.09101245 -0.17825568 0.40279016 0.051301293 -0.3544421 -0.24720621 0.32493493 -0.094503894 -0.058786783 0.11684353 0.10251459 0.926668 0.27053002 0.14472897 0.02956218 -0.04442435 0.28931606 0.2003475 -0.23702522 0.20975123 0.40235576 -0.11677698 -0.27362877 -0.3633615 -0.0018203574 -0.0007392416 0.10942939 -0.31123516 0.082015604 -0.15505122 0.2975515 -0.097836316 0.38306418 0.07486335 0.07666698 0.12259504 0.28737622 0.14599368 0.24865398 -0.1488752 -0.28961223 0.103652775 0.16333646 0.3082031 0.33295563 -0.16948791 -0.1004068 -0.102442026 -0.14758532 0.019696973 0.100055166 0.3507686 -0.2615779 0.14263116 0.36201394 -0.09265111 -0.04341201 -0.04898938
321 0.2202775 -0.085148275 0.14557315 -0.19254203 0.1975961 -0.36765528 -0.33759534 -0.10074828 0.40662646 -0.4039311 -0.0030632594 0.044546984 0.32105455 -0.029651614 -0.1369988 0.104187675 -0.36763853 0.034218688 0.27761137 -0.07629187 -0.18806644 -0.0065554995 -0.11702571 -0.47502252 0.27289367 -0.05597181 -0.31585592 0.19154745 0.15973791 0.0904967 0.0404804 0.012171427 0.027500287 -0.10320456 -0.34929147 0.25761166 -0.12321068 -0.23452409 0.020418769 -0.08527445 0.2596003 0.13645907 0.0890896 -0.09729534 0.36587378 -0.29858667 -0.38095856 0.31611463 0.20058094 -0.11004863 0.074962355 -0.28792468 0.09122152 -0.255739 -0.18656094 0.43326026 -0.16396667 0.027133828 -0.13845523 -0.051807653 0.06743228 -0.19755353 0.2185602 -0.3549664
5 0.12151717 -0.0450719 -0.16739078 -0.12038672 0.019412816 -0.19639707 0.0033451018 0.056588918 0.4447465 -0.3010465 -0.24441946 -0.2533598 0.19779068 0.25116068 -0.089691095 -0.3667502 -0.015875762 0.3999441 -0.12401457 0.15747613 0.2990945 0.052287918 0.3607672 -0.023180883 0.1419852 -0.26109213 0.35648146 -0.027663097 0.052639686 -0.10490577 0.06259503 0.096434906 0.4092721 -0.01696507 0.04650773 0.16662478 -0.21598029 -0.36148944 -0.03914883 -0.3337603 -0.3610236 0.42928535 0.2628139 -0.22731528 0.347722 -0.32499534 -0.42005128 0.18412943 0.2657216 0.30070138 -0.2996553 -0.49651286 0.17196861 -0.04827342 0.014433621 0.09780241 0.21094176 -0.03202547 0.3198787 -0.15682417 0.029385328 0.112217635 -0.10120314 -0.23858681
766 -0.07257707 -0.2651831 0.27141118 0.07983838 0.039326854 -0.15751608 -0.67658436 0.41525313 0.05904024 0.17699626 -0.24700221 -0.1943524 0.38360754 0.1478308 -0.5519603 0.30202708 -0.2520475 -0.10952476 -0.30811888 -0.27152428 -0.2066949 -0.018955186 0.77052176 0.038440414 0.07938106 -0.041602705 0.2390983 -0.16155367 -0.4431976 -0.22203223 0.04763194 -0.11405844 0.42920277 0.060867913 -0.38639885 0.09657124 0.16335241 0.15354365 0.33802655 0.479298 -0.30563578 0.020317785 0.3966297 -0.187061 -0.18693636 -0.41901168 -0.2706836 0.22657369 -0.3148421 0.23143739 -0.19410665 -0.5048575 -0.04978139 -0.11022883 -0.14519747 0.15407628 -0.09483678 -0.07409335 0.2461165 -0.23496358 0.28237495 0.22705054 -0.098297745 0.4677643
148 -0.044523578 0.01711812 0.08822779 0.030763842 -0.03670497 -0.030069474 -0.28375292 -0.18153667 0.3624893 -0.07926291 -0.14375423 -0.059588272 0.16881038 -0.16308987 -0.3456906 0.48421994 -0.09713528 -0.34856915 0.17273726 0.102619365 -0.056982532 -0.07600789 -0.10899595 -0.27553657 0.41133636 -0.3325666 0.19347724 -0.05267601 0.22761804 -0.11501769 -0.0043292856 0.015746491 0.2356003 -0.031900212 -0.38015878 0.24681373 -0.44179982 -0.1346748 0.14945227 -0.025938682 -0.06251977 0.26411775 0.08830214 -0.19967073 0.058293857 -0.41580966 -0.47718063 0.24396762 0.2803578 0.14958304 0.47097087 -0.4596637 -0.21198829 -0.5006753 0.0004532126 -0.10364039 0.11661277 -0.14569315 0.12040469 -0.09854061 0.111028746 0.52103275 0.05177285 -0.1345431
178 -0.39031243 -0.0048690164 0.0646153 -0.040613566 0.12979682 0.15067744 -0.017824115 -0.06988424 0.24894874 -0.16504453 -0.4028736 -0.07258577 0.11053913 -0.14913978 -0.12394529 0.24011424 -0.030798582 0.5288812 0.041344207 0.19025281 -0.11758615 -0.04219653 -0.3643229 0.047664914 0.49133295 -0.11418049 0.08559911 -0.011309169 -0.11996873 -0.4241241 0.047696248 0.087763526 -0.602394 -0.21052325 0.15619074 0.13303068 -0.23373735 -0.1722681 -0.12017346 0.25136575 0.14792159 -0.061078552 -0.021143138 0.42708004 0.02487728 -0.10409103 -0.30024266 -0.24975997 0.31979504 -0.19513664 0.21426694 -0.35145342 0.012673907 -0.19346951 0.13756195 -0.34902123 0.033328597 0.23681228 0.23913634 -0.059262145 0.14352162 0.013911363 0.03288595 0.07084739
284 0.18257199 -0.0673282 0.38814113 -0.0006380081 -0.025555404 0.070821375 -0.2786789 0.008513113 -0.080683336 -0.48950258 0.21685088 -0.08379912 0.04142216 0.3238428 -0.21957748 0.5442625 0.20324935 0.14418666 0.5114322 -0.16695426 -0.3918545 -0.18470138 0.19161138 -0.038445733 0.41557297 -0.028653963 -0.5383898 -0.1809381 -0.07967868 0.26071584 0.1784537 0.13074139 0.116262786 -0.05251209 0.30262443 0.46316835 -0.3388022 -0.10867004 0.092235915 0.24385008 0.2374425 -0.24153422 -0.094636224 0.009953997 0.08557448 -0.22181645 -0.030555539 0.26216483 0.16299917 -0.12617928 -0.17743303 -0.13161047 0.12140796 0.020109419 -0.19613716 0.1494042 0.120256335 0.033523846 0.24619208 -0.23698959 0.28329766 -0.2164215 -0.07616806 -0.36824983
558 -0.007933979 0.4923678 0.13863465 -0.13072087 0.4135692 0.20867153 -0.5458547 0.09138847 -0.0050675357 -0.2617672 -0.18840785 0.2214906 0.05367599 0.11516851 -0.5380862 0.65094924 -0.4316392 0.15002164 -0.34460932 0.07457833 -0.012322294 -0.0132875545 0.12187579 0.2233511 0.017613761 0.26088253 0.27023378 0.21337532 -0.40427738 -0.16252801 -0.28124166 0.046065398 -0.07702488 -0.086862326 -0.023696158 0.1528669 0.24941406 -0.053628884 -0.29658794 0.30148166 -0.103756964 0.003295645 0.014008413 0.20054099 0.04377352 -0.11892602 -0.031265724 -0.08460996 -0.2585707 0.23591387 -0.17062159 -0.0418763 0.113387905 -0.18491755 -0.0689991 0.3008487 0.1493979 0.1801176 0.20672868 -0.48096794 -0.50646764 0.3584179 -0.08156606 -0.11372986
49 0.3262447 -0.015401201 0.043354172 -0.016614117 -0.20702502 0.27261257 -0.3129722 0.1639267 0.09589146 -0.093221754 -0.16201968 0.24772759 0.43686834 -0.15834458 0.17514357 0.18673547 -0.370193 -0.022136793 -0.30525368 0.058191877 -0.090593435 -0.5066204 -0.16450094 -0.089210615 0.10856026 -0.23461807 -0.020043315 -0.0037056631 0.045013167 -0.5128426 0.09752395 0.14293641 -0.028185675 0.14264102 0.21420828 -0.1566451 -0.010257824 0.061278775 -0.22061597 0.13751297 0.09135555 0.11216114 0.16489814 0.1806992 -0.5090509 -0.031891063 -0.42903453 0.16801862 0.030437049 -0.44305524 -0.02378603 -0.07115878 -0.23197946 -0.5560476 0.4380787 0.16808093 0.24695511 0.20372686 0.08494534 -0.0039567 0.538907 -0.26077136 0.16957842 -0.086738996
882 0.6944903 -0.09874119 0.27210358 0.31907624 0.26468992 -0.01205712 -0.3336844 0.05486422 0.047491364 -0.016377458 -0.1292734 0.18697901 0.21323736 -0.20740698 0.13934068 -0.08010022 0.17372431 -0.08745719 -0.05775704 -0.03024538 -0.021725189 -0.3315561 0.25513485 -0.045266666 0.28882432 -0.17235084 -0.122957624 -0.14456597 -0.0352279 -0.23382752 0.17248623 -0.101630144 -0.14182228 -0.46757442 -0.2831288 0.14681673 -0.048751473 0.23317227 0.030328868 0.23318237 0.09129557 0.20205829 0.055510405 0.08804789 -0.03220614 -0.21511878 -0.49475324 0.09652604 0.16458048 -0.020172365 -0.1432336 0.015808716 -0.0966648 -0.21800102 0.22292653 0.01909163 -0.22359346 0.28429165 0.30926532 -0.18016808 -0.3131663 -0.40228572 -0.2883044 -0.15417281
841 -0.06751236 0.08565872 0.47902805 0.14681633 0.08217717 0.3993667 0.11777851 -0.14071712 0.17190188 0.064581744 0.09344425 -0.58675253 0.3384138 0.44276923 -0.016603768 0.5625759 -0.0020469285 -0.21711825 -0.069365464 -0.22686256 -0.026962886 -0.21566361 0.24456644 0.12061631 0.5886175 -0.18552229 0.30815417 0.62113166 -0.11649091 -0.13942 -0.11338942 -0.039546337 0.2527796 0.37299922 -0.07034083 0.45175797 0.1803504 -0.21142185 -0.097441256 -0.0045608436 0.34437484 -0.097057976 0.086810544 0.021713912 -0.1316031 0.07459124 -0.3978951 0.024289053 0.16398075 -0.1904048 0.14102896 -0.14834352 -0.025227835 -0.53667647 0.15665908 0.22149448 0.40947866 -0.063516386 0.075952485 0.35161453 0.3787228 0.06519496 -0.22414142 -0.19211188
416 -0.5147439 0.14133158 0.1632487 0.024936972 0.33395323 0.24545737 -0.22593726 0.510046 0.36091176 0.022513296 0.03012151 0.18592118 0.1933804 0.15490341 -0.06922011 -0.42298985 -0.1523688 0.2036991 -0.21068148 -0.25454116 -0.46224517 -0.23369509 0.34087285 0.16332498 0.05986533 -0.21725856 -0.098356605 0.10999853 -0.2796581 -0.4457101 -0.078708716 0.21937843 0.088245325 -0.4807307 0.34205523 0.016520856 0.03956989 -0.3431738 0.29980394 0.15724212 0.19821016 0.001567879 0.15064818 -0.20313035 0.070378415 -0.5133531 -0.44161746 -0.17759249 -0.20539701 -0.01198689 0.10998421 -0.29395595 0.02035129 0.14583887 0.10336331 -0.04205654 0.02758413 0.04757684 -0.4739047 0.28169337 -0.35548225 0.11776694 0.019452048 0.019058317
794 0.08311153 -0.31148386 0.15713963 0.2626802 0.15496248 -0.23308618 0.22392935 -0.22587961 -0.089042954 0.14621475 -0.21228473 0.07775658 0.42214537 -0.09010946 0.2250568 0.3895322 -0.24273497 0.43163538 0.08203753 -0.029506229 -0.18730322 -0.30027673 0.25241905 -0.021746332 0.010956419 0.49584848 -0.21202767 -0.22021943 0.14178091 -0.09238725 -0.17821324 0.16420718 0.11736319 -0.26321253 0.04637549 -0.32956517 -0.029277992 -0.23043293 -0.20749141 -0.14664356 0.029932514 -0.117721416 0.1371496 -0.17886782 -0.088179246 -0.31953862 -0.69580555 0.24390827 0.13546187 -0.09600531 -0.21220061 -0.15030228 0.43186563 -0.22684398 0.15856561 -0.06668544 0.44542104 -0.009351569 -0.23980753 -0.38477328 0.03009003 -0.034687247 -0.4775522 0.09179953
840 -0.018769907 -0.22497824 -0.45162478 0.3785143 0.2119953 0.13189948 -0.12988739 -0.0768725 -0.16645123 -0.06746878 -0.43903542 0.124500915 -0.10483867 0.1639941 0.22030048 -0.07794077 -0.13848102 0.19215223 0.30237803 -0.13612424 -0.3707022 -0.259288 0.371316 -0.11993354 0.23361865 -0.06812623 0.39151773 0.024730435 -0.28114015 -0.31780443 -0.083393626 -0.09760367 0.104357995 -0.20412667 0.3143596 0.1896272 -0.13553332 -0.025487445 -0.3172247 0.21721777 0.09742993 0.18613221 -0.5601736 0.069434285 0.08135125 -0.69746995 -0.20305225 -0.05213559 0.07778193 -0.4454636 0.47080442 -0.37338445 -0.021564422 -0.22187534 -0.015506747 -0.21305336 0.582518 -0.013165915 0.062823504 -0.1615615 -0.010807248 -0.50079453 -0.032933753 0.20192465
347 -0.07197291 -0.10968738 0.3522038 -0.046077713 0.1465365 0.037946314 -0.25771263 0.069256775 -0.028804448 -0.33998245 -0.03981653 -0.2902243 0.46937513 0.617589 0.27170295 -0.25298986 -0.36145982 0.34941646 -0.02464522 -0.34800875 0.06842183 -0.22007799 -0.10976405 -0.22954077 0.45090172 -0.2943611 0.07057787 0.049525887 0.17117645 -0.6392592 0.013972349 0.24503334 0.015885524 -0.015387997 -0.24973558 -0.14531834 -0.028445266 -0.13025987 0.15653667 0.017804679 -0.26753968 0.34836993 -0.10917246 0.1258647 -0.152023 0.0036850348 -0.30647835 -0.0960929 0.2008452 0.3423697 0.06954541 -0.27203363 -0.19117089 -0.010652994 -0.22285767 0.11357904 -0.14337143 0.06742221 -0.18369347 -0.09536034 0.09764993 0.22775471 -0.1948409 0.3018695
564 -0.1387634 0.2947751 -0.2564944 -0.07319479 0.10611817 0.091927215 -0.29806548 -0.5970196 0.30933896 0.22928981 -0.3455051 -0.11962189 0.04970181 0.22203556 0.020313116 -0.04075591 0.30243456 0.42183727 -0.11607572 0.16863851 -0.43910736 -0.027349623 0.40399274 -0.06337099 0.1355662 -0.28460652 0.1310139 0.0698284 -0.4174245 0.032702297 0.6281844 0.023106106 -0.0869356 0.06045024 -0.22636583 0.08082834 -0.3430698 -0.24591266 0.21072276 -0.061943103 -0.030865328 0.1943673 0.22499625 -0.2452376 -0.10092118 -0.15610185 -0.14211765 0.113864 -0.035622858 0.10214726 -0.14454299 -0.4135373 -0.22213252 0.051078316 0.06017788 0.29924434 0.30932322 0.009093824 0.19849372 -0.011759194 0.07163263 -0.30420431 -0.17123705 -0.35004488
577 0.2524978 0.060611825 0.1192955 0.21928091 -0.09200558 0.06437601 -0.17066099 0.03162299 0.17846926 -0.20045264 0.006790054 -0.020163791 0.036063485 0.19605853 -0.15133126 0.26048842 -0.22204447 0.35361525 -0.11931288 -0.1616428 0.0016724715 0.28984085 -0.21037711 -0.2944383 0.2224852 -0.10597392 -0.31379306 0.45850188 -0.19506095 0.03779574 0.45716015 -0.0799137 -0.43400356 -0.1629362 -0.21978574 -0.22213775 -0.39929354 0.054280654 0.38151473 0.3123197 -0.16197078 -0.1095067 -0.17299093 0.1411427 -0.03164039 -0.77194 -0.20265007 0.14823534 0.11230514 -0.041066494 -0.13916522 -0.022668418 0.041453224 -0.12642443 0.13738737 0.17367753 -0.06450431 -0.33966714 -0.19345812 0.05736788 0.037129298 -0.18184848 -0.28412524 -0.34439018
382 -0.054452844 -0.047126316 0.14459181 0.40698507 0.19864535 -0.0955727 -0.06762069 -0.07620866 -0.13006862 -0.30538324 -0.32497123 0.26276878 0.2710952 0.28501588 -0.034864403 0.10612511 -0.079881795 0.13705575 0.014005913 -0.18920659 0.030025028 -0.02688148 0.27143076 -0.02557018 -0.012020633 -0.3954913 0.21294329 -0.09663297 0.28465572 -0.023382522 -0.2185011 -0.06296932 0.027863622 0.36882937 0.60734475 -0.12683658 -0.17851774 -0.061042093 0.46705997 0.44665095 0.5540738 0.1691008 -0.029988501 0.41361433 -0.14687702 -0.23635113 -0.5604874 0.14770108 0.19535433 -0.14253074 0.012005948 -0.072972134 0.16280338 -0.09904864 -0.047640946 -0.030307876 -0.23366964 -0.1176275 -0.10404312 -0.25912797 -0.14633757 0.07623098 0.22986865 -0.36724067
